digraph Tree {
node [shape=box, fontname="helvetica"] ;
edge [fontname="helvetica"] ;
0 [label="X[2] <= -1.271\ngini = 0.151\nsamples = 56172\nvalue = [[53022, 3150]\n[50109, 6063]\n[53010, 3162]\n[50058, 6114]\n[52970, 3202]\n[50012, 6160]\n[52833, 3339]\n[50052, 6120]\n[52729, 3443]\n[50081, 6091]\n[52910, 3262]\n[50106, 6066]]"] ;
1 [label="X[2] <= -1.731\ngini = 0.021\nsamples = 6010\nvalue = [[6010, 0]\n[6010, 0]\n[6010, 0]\n[6008, 2]\n[6010, 0]\n[6002, 8]\n[6004, 6]\n[6010, 0]\n[6003, 7]\n[6006, 4]\n[5626, 384]\n[411, 5599]]"] ;
0 -> 1 [labeldistance=2.5, labelangle=45, headlabel="True"] ;
2 [label="X[5] <= -0.016\ngini = 0.0\nsamples = 4518\nvalue = [[4518, 0]\n[4518, 0]\n[4518, 0]\n[4518, 0]\n[4518, 0]\n[4518, 0]\n[4517, 1]\n[4518, 0]\n[4515, 3]\n[4518, 0]\n[4518, 0]\n[4, 4514]]"] ;
1 -> 2 ;
3 [label="gini = 0.0\nsamples = 4514\nvalue = [[4514, 0]\n[4514, 0]\n[4514, 0]\n[4514, 0]\n[4514, 0]\n[4514, 0]\n[4514, 0]\n[4514, 0]\n[4514, 0]\n[4514, 0]\n[4514, 0]\n[0, 4514]]"] ;
2 -> 3 ;
4 [label="X[8] <= -0.046\ngini = 0.062\nsamples = 4\nvalue = [[4, 0]\n[4, 0]\n[4, 0]\n[4, 0]\n[4, 0]\n[4, 0]\n[3, 1]\n[4, 0]\n[1, 3]\n[4, 0]\n[4, 0]\n[4, 0]]"] ;
2 -> 4 ;
5 [label="gini = 0.0\nsamples = 3\nvalue = [[3, 0]\n[3, 0]\n[3, 0]\n[3, 0]\n[3, 0]\n[3, 0]\n[3, 0]\n[3, 0]\n[0, 3]\n[3, 0]\n[3, 0]\n[3, 0]]"] ;
4 -> 5 ;
6 [label="gini = 0.0\nsamples = 1\nvalue = [[1, 0]\n[1, 0]\n[1, 0]\n[1, 0]\n[1, 0]\n[1, 0]\n[0, 1]\n[1, 0]\n[1, 0]\n[1, 0]\n[1, 0]\n[1, 0]]"] ;
4 -> 6 ;
7 [label="X[0] <= -1.06\ngini = 0.067\nsamples = 1492\nvalue = [[1492, 0]\n[1492, 0]\n[1492, 0]\n[1490, 2]\n[1492, 0]\n[1484, 8]\n[1487, 5]\n[1492, 0]\n[1488, 4]\n[1488, 4]\n[1108, 384]\n[407, 1085]]"] ;
1 -> 7 ;
8 [label="X[8] <= -1.067\ngini = 0.002\nsamples = 400\nvalue = [[400, 0]\n[400, 0]\n[400, 0]\n[400, 0]\n[400, 0]\n[400, 0]\n[400, 0]\n[400, 0]\n[400, 0]\n[398, 2]\n[400, 0]\n[2, 398]]"] ;
7 -> 8 ;
9 [label="X[1] <= 0.933\ngini = 0.001\nsamples = 399\nvalue = [[399, 0]\n[399, 0]\n[399, 0]\n[399, 0]\n[399, 0]\n[399, 0]\n[399, 0]\n[399, 0]\n[399, 0]\n[398, 1]\n[399, 0]\n[1, 398]]"] ;
8 -> 9 ;
10 [label="gini = 0.0\nsamples = 388\nvalue = [[388, 0]\n[388, 0]\n[388, 0]\n[388, 0]\n[388, 0]\n[388, 0]\n[388, 0]\n[388, 0]\n[388, 0]\n[388, 0]\n[388, 0]\n[0, 388]]"] ;
9 -> 10 ;
11 [label="X[0] <= -1.12\ngini = 0.028\nsamples = 11\nvalue = [[11, 0]\n[11, 0]\n[11, 0]\n[11, 0]\n[11, 0]\n[11, 0]\n[11, 0]\n[11, 0]\n[11, 0]\n[10, 1]\n[11, 0]\n[1, 10]]"] ;
9 -> 11 ;
12 [label="gini = 0.0\nsamples = 1\nvalue = [[1, 0]\n[1, 0]\n[1, 0]\n[1, 0]\n[1, 0]\n[1, 0]\n[1, 0]\n[1, 0]\n[1, 0]\n[0, 1]\n[1, 0]\n[1, 0]]"] ;
11 -> 12 ;
13 [label="gini = 0.0\nsamples = 10\nvalue = [[10, 0]\n[10, 0]\n[10, 0]\n[10, 0]\n[10, 0]\n[10, 0]\n[10, 0]\n[10, 0]\n[10, 0]\n[10, 0]\n[10, 0]\n[0, 10]]"] ;
11 -> 13 ;
14 [label="gini = 0.0\nsamples = 1\nvalue = [[1, 0]\n[1, 0]\n[1, 0]\n[1, 0]\n[1, 0]\n[1, 0]\n[1, 0]\n[1, 0]\n[1, 0]\n[0, 1]\n[1, 0]\n[1, 0]]"] ;
8 -> 14 ;
15 [label="X[6] <= -1.148\ngini = 0.08\nsamples = 1092\nvalue = [[1092, 0]\n[1092, 0]\n[1092, 0]\n[1090, 2]\n[1092, 0]\n[1084, 8]\n[1087, 5]\n[1092, 0]\n[1088, 4]\n[1090, 2]\n[708, 384]\n[405, 687]]"] ;
7 -> 15 ;
16 [label="X[4] <= -1.398\ngini = 0.083\nsamples = 503\nvalue = [[503, 0]\n[503, 0]\n[503, 0]\n[503, 0]\n[503, 0]\n[502, 1]\n[501, 2]\n[503, 0]\n[503, 0]\n[502, 1]\n[218, 285]\n[289, 214]]"] ;
15 -> 16 ;
17 [label="X[6] <= -1.448\ngini = 0.067\nsamples = 146\nvalue = [[146, 0]\n[146, 0]\n[146, 0]\n[146, 0]\n[146, 0]\n[146, 0]\n[146, 0]\n[146, 0]\n[146, 0]\n[146, 0]\n[105, 41]\n[41, 105]]"] ;
16 -> 17 ;
18 [label="X[5] <= -1.376\ngini = 0.083\nsamples = 50\nvalue = [[50, 0]\n[50, 0]\n[50, 0]\n[50, 0]\n[50, 0]\n[50, 0]\n[50, 0]\n[50, 0]\n[50, 0]\n[50, 0]\n[24, 26]\n[26, 24]]"] ;
17 -> 18 ;
19 [label="X[7] <= -0.95\ngini = 0.072\nsamples = 32\nvalue = [[32, 0]\n[32, 0]\n[32, 0]\n[32, 0]\n[32, 0]\n[32, 0]\n[32, 0]\n[32, 0]\n[32, 0]\n[32, 0]\n[10, 22]\n[22, 10]]"] ;
18 -> 19 ;
20 [label="X[5] <= -1.616\ngini = 0.083\nsamples = 21\nvalue = [[21, 0]\n[21, 0]\n[21, 0]\n[21, 0]\n[21, 0]\n[21, 0]\n[21, 0]\n[21, 0]\n[21, 0]\n[21, 0]\n[10, 11]\n[11, 10]]"] ;
19 -> 20 ;
21 [label="X[9] <= 0.377\ngini = 0.056\nsamples = 14\nvalue = [[14, 0]\n[14, 0]\n[14, 0]\n[14, 0]\n[14, 0]\n[14, 0]\n[14, 0]\n[14, 0]\n[14, 0]\n[14, 0]\n[3, 11]\n[11, 3]]"] ;
20 -> 21 ;
22 [label="X[8] <= -1.686\ngini = 0.025\nsamples = 12\nvalue = [[12, 0]\n[12, 0]\n[12, 0]\n[12, 0]\n[12, 0]\n[12, 0]\n[12, 0]\n[12, 0]\n[12, 0]\n[12, 0]\n[1, 11]\n[11, 1]]"] ;
21 -> 22 ;
23 [label="gini = 0.0\nsamples = 1\nvalue = [[1, 0]\n[1, 0]\n[1, 0]\n[1, 0]\n[1, 0]\n[1, 0]\n[1, 0]\n[1, 0]\n[1, 0]\n[1, 0]\n[1, 0]\n[0, 1]]"] ;
22 -> 23 ;
24 [label="gini = 0.0\nsamples = 11\nvalue = [[11, 0]\n[11, 0]\n[11, 0]\n[11, 0]\n[11, 0]\n[11, 0]\n[11, 0]\n[11, 0]\n[11, 0]\n[11, 0]\n[0, 11]\n[11, 0]]"] ;
22 -> 24 ;
25 [label="gini = 0.0\nsamples = 2\nvalue = [[2, 0]\n[2, 0]\n[2, 0]\n[2, 0]\n[2, 0]\n[2, 0]\n[2, 0]\n[2, 0]\n[2, 0]\n[2, 0]\n[2, 0]\n[0, 2]]"] ;
21 -> 25 ;
26 [label="gini = 0.0\nsamples = 7\nvalue = [[7, 0]\n[7, 0]\n[7, 0]\n[7, 0]\n[7, 0]\n[7, 0]\n[7, 0]\n[7, 0]\n[7, 0]\n[7, 0]\n[7, 0]\n[0, 7]]"] ;
20 -> 26 ;
27 [label="gini = 0.0\nsamples = 11\nvalue = [[11, 0]\n[11, 0]\n[11, 0]\n[11, 0]\n[11, 0]\n[11, 0]\n[11, 0]\n[11, 0]\n[11, 0]\n[11, 0]\n[0, 11]\n[11, 0]]"] ;
19 -> 27 ;
28 [label="X[9] <= -1.529\ngini = 0.058\nsamples = 18\nvalue = [[18, 0]\n[18, 0]\n[18, 0]\n[18, 0]\n[18, 0]\n[18, 0]\n[18, 0]\n[18, 0]\n[18, 0]\n[18, 0]\n[14, 4]\n[4, 14]]"] ;
18 -> 28 ;
29 [label="gini = 0.0\nsamples = 2\nvalue = [[2, 0]\n[2, 0]\n[2, 0]\n[2, 0]\n[2, 0]\n[2, 0]\n[2, 0]\n[2, 0]\n[2, 0]\n[2, 0]\n[0, 2]\n[2, 0]]"] ;
28 -> 29 ;
30 [label="X[7] <= -0.502\ngini = 0.036\nsamples = 16\nvalue = [[16, 0]\n[16, 0]\n[16, 0]\n[16, 0]\n[16, 0]\n[16, 0]\n[16, 0]\n[16, 0]\n[16, 0]\n[16, 0]\n[14, 2]\n[2, 14]]"] ;
28 -> 30 ;
31 [label="X[6] <= -1.451\ngini = 0.021\nsamples = 15\nvalue = [[15, 0]\n[15, 0]\n[15, 0]\n[15, 0]\n[15, 0]\n[15, 0]\n[15, 0]\n[15, 0]\n[15, 0]\n[15, 0]\n[14, 1]\n[1, 14]]"] ;
30 -> 31 ;
32 [label="gini = 0.0\nsamples = 13\nvalue = [[13, 0]\n[13, 0]\n[13, 0]\n[13, 0]\n[13, 0]\n[13, 0]\n[13, 0]\n[13, 0]\n[13, 0]\n[13, 0]\n[13, 0]\n[0, 13]]"] ;
31 -> 32 ;
33 [label="X[8] <= -1.474\ngini = 0.083\nsamples = 2\nvalue = [[2, 0]\n[2, 0]\n[2, 0]\n[2, 0]\n[2, 0]\n[2, 0]\n[2, 0]\n[2, 0]\n[2, 0]\n[2, 0]\n[1, 1]\n[1, 1]]"] ;
31 -> 33 ;
34 [label="gini = 0.0\nsamples = 1\nvalue = [[1, 0]\n[1, 0]\n[1, 0]\n[1, 0]\n[1, 0]\n[1, 0]\n[1, 0]\n[1, 0]\n[1, 0]\n[1, 0]\n[1, 0]\n[0, 1]]"] ;
33 -> 34 ;
35 [label="gini = 0.0\nsamples = 1\nvalue = [[1, 0]\n[1, 0]\n[1, 0]\n[1, 0]\n[1, 0]\n[1, 0]\n[1, 0]\n[1, 0]\n[1, 0]\n[1, 0]\n[0, 1]\n[1, 0]]"] ;
33 -> 35 ;
36 [label="gini = 0.0\nsamples = 1\nvalue = [[1, 0]\n[1, 0]\n[1, 0]\n[1, 0]\n[1, 0]\n[1, 0]\n[1, 0]\n[1, 0]\n[1, 0]\n[1, 0]\n[0, 1]\n[1, 0]]"] ;
30 -> 36 ;
37 [label="X[8] <= -1.612\ngini = 0.044\nsamples = 96\nvalue = [[96, 0]\n[96, 0]\n[96, 0]\n[96, 0]\n[96, 0]\n[96, 0]\n[96, 0]\n[96, 0]\n[96, 0]\n[96, 0]\n[81, 15]\n[15, 81]]"] ;
17 -> 37 ;
38 [label="gini = 0.0\nsamples = 2\nvalue = [[2, 0]\n[2, 0]\n[2, 0]\n[2, 0]\n[2, 0]\n[2, 0]\n[2, 0]\n[2, 0]\n[2, 0]\n[2, 0]\n[0, 2]\n[2, 0]]"] ;
37 -> 38 ;
39 [label="X[5] <= -1.776\ngini = 0.04\nsamples = 94\nvalue = [[94, 0]\n[94, 0]\n[94, 0]\n[94, 0]\n[94, 0]\n[94, 0]\n[94, 0]\n[94, 0]\n[94, 0]\n[94, 0]\n[81, 13]\n[13, 81]]"] ;
37 -> 39 ;
40 [label="X[7] <= -1.374\ngini = 0.076\nsamples = 20\nvalue = [[20, 0]\n[20, 0]\n[20, 0]\n[20, 0]\n[20, 0]\n[20, 0]\n[20, 0]\n[20, 0]\n[20, 0]\n[20, 0]\n[13, 7]\n[7, 13]]"] ;
39 -> 40 ;
41 [label="gini = 0.0\nsamples = 7\nvalue = [[7, 0]\n[7, 0]\n[7, 0]\n[7, 0]\n[7, 0]\n[7, 0]\n[7, 0]\n[7, 0]\n[7, 0]\n[7, 0]\n[7, 0]\n[0, 7]]"] ;
40 -> 41 ;
42 [label="X[9] <= -1.821\ngini = 0.083\nsamples = 13\nvalue = [[13, 0]\n[13, 0]\n[13, 0]\n[13, 0]\n[13, 0]\n[13, 0]\n[13, 0]\n[13, 0]\n[13, 0]\n[13, 0]\n[6, 7]\n[7, 6]]"] ;
40 -> 42 ;
43 [label="gini = 0.0\nsamples = 3\nvalue = [[3, 0]\n[3, 0]\n[3, 0]\n[3, 0]\n[3, 0]\n[3, 0]\n[3, 0]\n[3, 0]\n[3, 0]\n[3, 0]\n[3, 0]\n[0, 3]]"] ;
42 -> 43 ;
44 [label="X[0] <= -0.971\ngini = 0.07\nsamples = 10\nvalue = [[10, 0]\n[10, 0]\n[10, 0]\n[10, 0]\n[10, 0]\n[10, 0]\n[10, 0]\n[10, 0]\n[10, 0]\n[10, 0]\n[3, 7]\n[7, 3]]"] ;
42 -> 44 ;
45 [label="X[8] <= -1.43\ngini = 0.08\nsamples = 5\nvalue = [[5, 0]\n[5, 0]\n[5, 0]\n[5, 0]\n[5, 0]\n[5, 0]\n[5, 0]\n[5, 0]\n[5, 0]\n[5, 0]\n[3, 2]\n[2, 3]]"] ;
44 -> 45 ;
46 [label="gini = 0.0\nsamples = 3\nvalue = [[3, 0]\n[3, 0]\n[3, 0]\n[3, 0]\n[3, 0]\n[3, 0]\n[3, 0]\n[3, 0]\n[3, 0]\n[3, 0]\n[3, 0]\n[0, 3]]"] ;
45 -> 46 ;
47 [label="gini = 0.0\nsamples = 2\nvalue = [[2, 0]\n[2, 0]\n[2, 0]\n[2, 0]\n[2, 0]\n[2, 0]\n[2, 0]\n[2, 0]\n[2, 0]\n[2, 0]\n[0, 2]\n[2, 0]]"] ;
45 -> 47 ;
48 [label="gini = 0.0\nsamples = 5\nvalue = [[5, 0]\n[5, 0]\n[5, 0]\n[5, 0]\n[5, 0]\n[5, 0]\n[5, 0]\n[5, 0]\n[5, 0]\n[5, 0]\n[0, 5]\n[5, 0]]"] ;
44 -> 48 ;
49 [label="X[7] <= -0.856\ngini = 0.025\nsamples = 74\nvalue = [[74, 0]\n[74, 0]\n[74, 0]\n[74, 0]\n[74, 0]\n[74, 0]\n[74, 0]\n[74, 0]\n[74, 0]\n[74, 0]\n[68, 6]\n[6, 68]]"] ;
39 -> 49 ;
50 [label="X[5] <= -1.136\ngini = 0.005\nsamples = 60\nvalue = [[60, 0]\n[60, 0]\n[60, 0]\n[60, 0]\n[60, 0]\n[60, 0]\n[60, 0]\n[60, 0]\n[60, 0]\n[60, 0]\n[59, 1]\n[1, 59]]"] ;
49 -> 50 ;
51 [label="gini = 0.0\nsamples = 54\nvalue = [[54, 0]\n[54, 0]\n[54, 0]\n[54, 0]\n[54, 0]\n[54, 0]\n[54, 0]\n[54, 0]\n[54, 0]\n[54, 0]\n[54, 0]\n[0, 54]]"] ;
50 -> 51 ;
52 [label="X[9] <= 0.363\ngini = 0.046\nsamples = 6\nvalue = [[6, 0]\n[6, 0]\n[6, 0]\n[6, 0]\n[6, 0]\n[6, 0]\n[6, 0]\n[6, 0]\n[6, 0]\n[6, 0]\n[5, 1]\n[1, 5]]"] ;
50 -> 52 ;
53 [label="gini = 0.0\nsamples = 5\nvalue = [[5, 0]\n[5, 0]\n[5, 0]\n[5, 0]\n[5, 0]\n[5, 0]\n[5, 0]\n[5, 0]\n[5, 0]\n[5, 0]\n[5, 0]\n[0, 5]]"] ;
52 -> 53 ;
54 [label="gini = 0.0\nsamples = 1\nvalue = [[1, 0]\n[1, 0]\n[1, 0]\n[1, 0]\n[1, 0]\n[1, 0]\n[1, 0]\n[1, 0]\n[1, 0]\n[1, 0]\n[0, 1]\n[1, 0]]"] ;
52 -> 54 ;
55 [label="X[8] <= -1.369\ngini = 0.077\nsamples = 14\nvalue = [[14, 0]\n[14, 0]\n[14, 0]\n[14, 0]\n[14, 0]\n[14, 0]\n[14, 0]\n[14, 0]\n[14, 0]\n[14, 0]\n[9, 5]\n[5, 9]]"] ;
49 -> 55 ;
56 [label="X[8] <= -1.539\ngini = 0.074\nsamples = 6\nvalue = [[6, 0]\n[6, 0]\n[6, 0]\n[6, 0]\n[6, 0]\n[6, 0]\n[6, 0]\n[6, 0]\n[6, 0]\n[6, 0]\n[2, 4]\n[4, 2]]"] ;
55 -> 56 ;
57 [label="gini = 0.0\nsamples = 1\nvalue = [[1, 0]\n[1, 0]\n[1, 0]\n[1, 0]\n[1, 0]\n[1, 0]\n[1, 0]\n[1, 0]\n[1, 0]\n[1, 0]\n[1, 0]\n[0, 1]]"] ;
56 -> 57 ;
58 [label="X[9] <= -1.376\ngini = 0.053\nsamples = 5\nvalue = [[5, 0]\n[5, 0]\n[5, 0]\n[5, 0]\n[5, 0]\n[5, 0]\n[5, 0]\n[5, 0]\n[5, 0]\n[5, 0]\n[1, 4]\n[4, 1]]"] ;
56 -> 58 ;
59 [label="gini = 0.0\nsamples = 1\nvalue = [[1, 0]\n[1, 0]\n[1, 0]\n[1, 0]\n[1, 0]\n[1, 0]\n[1, 0]\n[1, 0]\n[1, 0]\n[1, 0]\n[1, 0]\n[0, 1]]"] ;
58 -> 59 ;
60 [label="gini = 0.0\nsamples = 4\nvalue = [[4, 0]\n[4, 0]\n[4, 0]\n[4, 0]\n[4, 0]\n[4, 0]\n[4, 0]\n[4, 0]\n[4, 0]\n[4, 0]\n[0, 4]\n[4, 0]]"] ;
58 -> 60 ;
61 [label="X[9] <= -1.738\ngini = 0.036\nsamples = 8\nvalue = [[8, 0]\n[8, 0]\n[8, 0]\n[8, 0]\n[8, 0]\n[8, 0]\n[8, 0]\n[8, 0]\n[8, 0]\n[8, 0]\n[7, 1]\n[1, 7]]"] ;
55 -> 61 ;
62 [label="gini = 0.0\nsamples = 1\nvalue = [[1, 0]\n[1, 0]\n[1, 0]\n[1, 0]\n[1, 0]\n[1, 0]\n[1, 0]\n[1, 0]\n[1, 0]\n[1, 0]\n[0, 1]\n[1, 0]]"] ;
61 -> 62 ;
63 [label="gini = 0.0\nsamples = 7\nvalue = [[7, 0]\n[7, 0]\n[7, 0]\n[7, 0]\n[7, 0]\n[7, 0]\n[7, 0]\n[7, 0]\n[7, 0]\n[7, 0]\n[7, 0]\n[0, 7]]"] ;
61 -> 63 ;
64 [label="X[7] <= -1.186\ngini = 0.073\nsamples = 357\nvalue = [[357, 0]\n[357, 0]\n[357, 0]\n[357, 0]\n[357, 0]\n[356, 1]\n[355, 2]\n[357, 0]\n[357, 0]\n[356, 1]\n[113, 244]\n[248, 109]]"] ;
16 -> 64 ;
65 [label="X[5] <= -1.776\ngini = 0.074\nsamples = 42\nvalue = [[42, 0]\n[42, 0]\n[42, 0]\n[42, 0]\n[42, 0]\n[42, 0]\n[42, 0]\n[42, 0]\n[42, 0]\n[42, 0]\n[28, 14]\n[14, 28]]"] ;
64 -> 65 ;
66 [label="X[8] <= -1.237\ngini = 0.05\nsamples = 11\nvalue = [[11, 0]\n[11, 0]\n[11, 0]\n[11, 0]\n[11, 0]\n[11, 0]\n[11, 0]\n[11, 0]\n[11, 0]\n[11, 0]\n[2, 9]\n[9, 2]]"] ;
65 -> 66 ;
67 [label="gini = 0.0\nsamples = 9\nvalue = [[9, 0]\n[9, 0]\n[9, 0]\n[9, 0]\n[9, 0]\n[9, 0]\n[9, 0]\n[9, 0]\n[9, 0]\n[9, 0]\n[0, 9]\n[9, 0]]"] ;
66 -> 67 ;
68 [label="gini = 0.0\nsamples = 2\nvalue = [[2, 0]\n[2, 0]\n[2, 0]\n[2, 0]\n[2, 0]\n[2, 0]\n[2, 0]\n[2, 0]\n[2, 0]\n[2, 0]\n[2, 0]\n[0, 2]]"] ;
66 -> 68 ;
69 [label="X[4] <= -1.141\ngini = 0.045\nsamples = 31\nvalue = [[31, 0]\n[31, 0]\n[31, 0]\n[31, 0]\n[31, 0]\n[31, 0]\n[31, 0]\n[31, 0]\n[31, 0]\n[31, 0]\n[26, 5]\n[5, 26]]"] ;
65 -> 69 ;
70 [label="X[6] <= -1.716\ngini = 0.031\nsamples = 29\nvalue = [[29, 0]\n[29, 0]\n[29, 0]\n[29, 0]\n[29, 0]\n[29, 0]\n[29, 0]\n[29, 0]\n[29, 0]\n[29, 0]\n[26, 3]\n[3, 26]]"] ;
69 -> 70 ;
71 [label="gini = 0.0\nsamples = 1\nvalue = [[1, 0]\n[1, 0]\n[1, 0]\n[1, 0]\n[1, 0]\n[1, 0]\n[1, 0]\n[1, 0]\n[1, 0]\n[1, 0]\n[0, 1]\n[1, 0]]"] ;
70 -> 71 ;
72 [label="X[9] <= -0.124\ngini = 0.022\nsamples = 28\nvalue = [[28, 0]\n[28, 0]\n[28, 0]\n[28, 0]\n[28, 0]\n[28, 0]\n[28, 0]\n[28, 0]\n[28, 0]\n[28, 0]\n[26, 2]\n[2, 26]]"] ;
70 -> 72 ;
73 [label="X[4] <= -1.347\ngini = 0.013\nsamples = 25\nvalue = [[25, 0]\n[25, 0]\n[25, 0]\n[25, 0]\n[25, 0]\n[25, 0]\n[25, 0]\n[25, 0]\n[25, 0]\n[25, 0]\n[24, 1]\n[1, 24]]"] ;
72 -> 73 ;
74 [label="X[9] <= -1.042\ngini = 0.053\nsamples = 5\nvalue = [[5, 0]\n[5, 0]\n[5, 0]\n[5, 0]\n[5, 0]\n[5, 0]\n[5, 0]\n[5, 0]\n[5, 0]\n[5, 0]\n[4, 1]\n[1, 4]]"] ;
73 -> 74 ;
75 [label="X[6] <= -1.36\ngini = 0.083\nsamples = 2\nvalue = [[2, 0]\n[2, 0]\n[2, 0]\n[2, 0]\n[2, 0]\n[2, 0]\n[2, 0]\n[2, 0]\n[2, 0]\n[2, 0]\n[1, 1]\n[1, 1]]"] ;
74 -> 75 ;
76 [label="gini = 0.0\nsamples = 1\nvalue = [[1, 0]\n[1, 0]\n[1, 0]\n[1, 0]\n[1, 0]\n[1, 0]\n[1, 0]\n[1, 0]\n[1, 0]\n[1, 0]\n[0, 1]\n[1, 0]]"] ;
75 -> 76 ;
77 [label="gini = 0.0\nsamples = 1\nvalue = [[1, 0]\n[1, 0]\n[1, 0]\n[1, 0]\n[1, 0]\n[1, 0]\n[1, 0]\n[1, 0]\n[1, 0]\n[1, 0]\n[1, 0]\n[0, 1]]"] ;
75 -> 77 ;
78 [label="gini = 0.0\nsamples = 3\nvalue = [[3, 0]\n[3, 0]\n[3, 0]\n[3, 0]\n[3, 0]\n[3, 0]\n[3, 0]\n[3, 0]\n[3, 0]\n[3, 0]\n[3, 0]\n[0, 3]]"] ;
74 -> 78 ;
79 [label="gini = 0.0\nsamples = 20\nvalue = [[20, 0]\n[20, 0]\n[20, 0]\n[20, 0]\n[20, 0]\n[20, 0]\n[20, 0]\n[20, 0]\n[20, 0]\n[20, 0]\n[20, 0]\n[0, 20]]"] ;
73 -> 79 ;
80 [label="X[4] <= -1.297\ngini = 0.074\nsamples = 3\nvalue = [[3, 0]\n[3, 0]\n[3, 0]\n[3, 0]\n[3, 0]\n[3, 0]\n[3, 0]\n[3, 0]\n[3, 0]\n[3, 0]\n[2, 1]\n[1, 2]]"] ;
72 -> 80 ;
81 [label="gini = 0.0\nsamples = 2\nvalue = [[2, 0]\n[2, 0]\n[2, 0]\n[2, 0]\n[2, 0]\n[2, 0]\n[2, 0]\n[2, 0]\n[2, 0]\n[2, 0]\n[2, 0]\n[0, 2]]"] ;
80 -> 81 ;
82 [label="gini = 0.0\nsamples = 1\nvalue = [[1, 0]\n[1, 0]\n[1, 0]\n[1, 0]\n[1, 0]\n[1, 0]\n[1, 0]\n[1, 0]\n[1, 0]\n[1, 0]\n[0, 1]\n[1, 0]]"] ;
80 -> 82 ;
83 [label="gini = 0.0\nsamples = 2\nvalue = [[2, 0]\n[2, 0]\n[2, 0]\n[2, 0]\n[2, 0]\n[2, 0]\n[2, 0]\n[2, 0]\n[2, 0]\n[2, 0]\n[0, 2]\n[2, 0]]"] ;
69 -> 83 ;
84 [label="X[5] <= -1.536\ngini = 0.067\nsamples = 315\nvalue = [[315, 0]\n[315, 0]\n[315, 0]\n[315, 0]\n[315, 0]\n[314, 1]\n[313, 2]\n[315, 0]\n[315, 0]\n[314, 1]\n[85, 230]\n[234, 81]]"] ;
64 -> 84 ;
85 [label="X[8] <= -1.572\ngini = 0.029\nsamples = 135\nvalue = [[135, 0]\n[135, 0]\n[135, 0]\n[135, 0]\n[135, 0]\n[135, 0]\n[135, 0]\n[135, 0]\n[135, 0]\n[135, 0]\n[13, 122]\n[122, 13]]"] ;
84 -> 85 ;
86 [label="gini = 0.0\nsamples = 4\nvalue = [[4, 0]\n[4, 0]\n[4, 0]\n[4, 0]\n[4, 0]\n[4, 0]\n[4, 0]\n[4, 0]\n[4, 0]\n[4, 0]\n[4, 0]\n[0, 4]]"] ;
85 -> 86 ;
87 [label="X[0] <= -0.891\ngini = 0.021\nsamples = 131\nvalue = [[131, 0]\n[131, 0]\n[131, 0]\n[131, 0]\n[131, 0]\n[131, 0]\n[131, 0]\n[131, 0]\n[131, 0]\n[131, 0]\n[9, 122]\n[122, 9]]"] ;
85 -> 87 ;
88 [label="X[9] <= 3.382\ngini = 0.015\nsamples = 128\nvalue = [[128, 0]\n[128, 0]\n[128, 0]\n[128, 0]\n[128, 0]\n[128, 0]\n[128, 0]\n[128, 0]\n[128, 0]\n[128, 0]\n[6, 122]\n[122, 6]]"] ;
87 -> 88 ;
89 [label="X[9] <= -2.058\ngini = 0.013\nsamples = 127\nvalue = [[127, 0]\n[127, 0]\n[127, 0]\n[127, 0]\n[127, 0]\n[127, 0]\n[127, 0]\n[127, 0]\n[127, 0]\n[127, 0]\n[5, 122]\n[122, 5]]"] ;
88 -> 89 ;
90 [label="X[7] <= -1.103\ngini = 0.068\nsamples = 7\nvalue = [[7, 0]\n[7, 0]\n[7, 0]\n[7, 0]\n[7, 0]\n[7, 0]\n[7, 0]\n[7, 0]\n[7, 0]\n[7, 0]\n[2, 5]\n[5, 2]]"] ;
89 -> 90 ;
91 [label="gini = 0.0\nsamples = 2\nvalue = [[2, 0]\n[2, 0]\n[2, 0]\n[2, 0]\n[2, 0]\n[2, 0]\n[2, 0]\n[2, 0]\n[2, 0]\n[2, 0]\n[2, 0]\n[0, 2]]"] ;
90 -> 91 ;
92 [label="gini = 0.0\nsamples = 5\nvalue = [[5, 0]\n[5, 0]\n[5, 0]\n[5, 0]\n[5, 0]\n[5, 0]\n[5, 0]\n[5, 0]\n[5, 0]\n[5, 0]\n[0, 5]\n[5, 0]]"] ;
90 -> 92 ;
93 [label="X[6] <= -1.179\ngini = 0.008\nsamples = 120\nvalue = [[120, 0]\n[120, 0]\n[120, 0]\n[120, 0]\n[120, 0]\n[120, 0]\n[120, 0]\n[120, 0]\n[120, 0]\n[120, 0]\n[3, 117]\n[117, 3]]"] ;
89 -> 93 ;
94 [label="X[7] <= -0.879\ngini = 0.003\nsamples = 108\nvalue = [[108, 0]\n[108, 0]\n[108, 0]\n[108, 0]\n[108, 0]\n[108, 0]\n[108, 0]\n[108, 0]\n[108, 0]\n[108, 0]\n[1, 107]\n[107, 1]]"] ;
93 -> 94 ;
95 [label="gini = 0.0\nsamples = 97\nvalue = [[97, 0]\n[97, 0]\n[97, 0]\n[97, 0]\n[97, 0]\n[97, 0]\n[97, 0]\n[97, 0]\n[97, 0]\n[97, 0]\n[0, 97]\n[97, 0]]"] ;
94 -> 95 ;
96 [label="X[8] <= -1.308\ngini = 0.028\nsamples = 11\nvalue = [[11, 0]\n[11, 0]\n[11, 0]\n[11, 0]\n[11, 0]\n[11, 0]\n[11, 0]\n[11, 0]\n[11, 0]\n[11, 0]\n[1, 10]\n[10, 1]]"] ;
94 -> 96 ;
97 [label="gini = 0.0\nsamples = 9\nvalue = [[9, 0]\n[9, 0]\n[9, 0]\n[9, 0]\n[9, 0]\n[9, 0]\n[9, 0]\n[9, 0]\n[9, 0]\n[9, 0]\n[0, 9]\n[9, 0]]"] ;
96 -> 97 ;
98 [label="X[9] <= -0.277\ngini = 0.083\nsamples = 2\nvalue = [[2, 0]\n[2, 0]\n[2, 0]\n[2, 0]\n[2, 0]\n[2, 0]\n[2, 0]\n[2, 0]\n[2, 0]\n[2, 0]\n[1, 1]\n[1, 1]]"] ;
96 -> 98 ;
99 [label="gini = 0.0\nsamples = 1\nvalue = [[1, 0]\n[1, 0]\n[1, 0]\n[1, 0]\n[1, 0]\n[1, 0]\n[1, 0]\n[1, 0]\n[1, 0]\n[1, 0]\n[1, 0]\n[0, 1]]"] ;
98 -> 99 ;
100 [label="gini = 0.0\nsamples = 1\nvalue = [[1, 0]\n[1, 0]\n[1, 0]\n[1, 0]\n[1, 0]\n[1, 0]\n[1, 0]\n[1, 0]\n[1, 0]\n[1, 0]\n[0, 1]\n[1, 0]]"] ;
98 -> 100 ;
101 [label="X[6] <= -1.174\ngini = 0.046\nsamples = 12\nvalue = [[12, 0]\n[12, 0]\n[12, 0]\n[12, 0]\n[12, 0]\n[12, 0]\n[12, 0]\n[12, 0]\n[12, 0]\n[12, 0]\n[2, 10]\n[10, 2]]"] ;
93 -> 101 ;
102 [label="X[3] <= -1.193\ngini = 0.074\nsamples = 3\nvalue = [[3, 0]\n[3, 0]\n[3, 0]\n[3, 0]\n[3, 0]\n[3, 0]\n[3, 0]\n[3, 0]\n[3, 0]\n[3, 0]\n[2, 1]\n[1, 2]]"] ;
101 -> 102 ;
103 [label="gini = 0.0\nsamples = 1\nvalue = [[1, 0]\n[1, 0]\n[1, 0]\n[1, 0]\n[1, 0]\n[1, 0]\n[1, 0]\n[1, 0]\n[1, 0]\n[1, 0]\n[0, 1]\n[1, 0]]"] ;
102 -> 103 ;
104 [label="gini = 0.0\nsamples = 2\nvalue = [[2, 0]\n[2, 0]\n[2, 0]\n[2, 0]\n[2, 0]\n[2, 0]\n[2, 0]\n[2, 0]\n[2, 0]\n[2, 0]\n[2, 0]\n[0, 2]]"] ;
102 -> 104 ;
105 [label="gini = 0.0\nsamples = 9\nvalue = [[9, 0]\n[9, 0]\n[9, 0]\n[9, 0]\n[9, 0]\n[9, 0]\n[9, 0]\n[9, 0]\n[9, 0]\n[9, 0]\n[0, 9]\n[9, 0]]"] ;
101 -> 105 ;
106 [label="gini = 0.0\nsamples = 1\nvalue = [[1, 0]\n[1, 0]\n[1, 0]\n[1, 0]\n[1, 0]\n[1, 0]\n[1, 0]\n[1, 0]\n[1, 0]\n[1, 0]\n[1, 0]\n[0, 1]]"] ;
88 -> 106 ;
107 [label="gini = 0.0\nsamples = 3\nvalue = [[3, 0]\n[3, 0]\n[3, 0]\n[3, 0]\n[3, 0]\n[3, 0]\n[3, 0]\n[3, 0]\n[3, 0]\n[3, 0]\n[3, 0]\n[0, 3]]"] ;
87 -> 107 ;
108 [label="X[7] <= -0.997\ngini = 0.083\nsamples = 180\nvalue = [[180, 0]\n[180, 0]\n[180, 0]\n[180, 0]\n[180, 0]\n[179, 1]\n[178, 2]\n[180, 0]\n[180, 0]\n[179, 1]\n[72, 108]\n[112, 68]]"] ;
84 -> 108 ;
109 [label="X[6] <= -1.287\ngini = 0.076\nsamples = 48\nvalue = [[48, 0]\n[48, 0]\n[48, 0]\n[48, 0]\n[48, 0]\n[48, 0]\n[48, 0]\n[48, 0]\n[48, 0]\n[48, 0]\n[31, 17]\n[17, 31]]"] ;
108 -> 109 ;
110 [label="X[5] <= -1.456\ngini = 0.082\nsamples = 27\nvalue = [[27, 0]\n[27, 0]\n[27, 0]\n[27, 0]\n[27, 0]\n[27, 0]\n[27, 0]\n[27, 0]\n[27, 0]\n[27, 0]\n[12, 15]\n[15, 12]]"] ;
109 -> 110 ;
111 [label="X[8] <= -1.468\ngini = 0.046\nsamples = 12\nvalue = [[12, 0]\n[12, 0]\n[12, 0]\n[12, 0]\n[12, 0]\n[12, 0]\n[12, 0]\n[12, 0]\n[12, 0]\n[12, 0]\n[2, 10]\n[10, 2]]"] ;
110 -> 111 ;
112 [label="X[9] <= -1.306\ngini = 0.074\nsamples = 3\nvalue = [[3, 0]\n[3, 0]\n[3, 0]\n[3, 0]\n[3, 0]\n[3, 0]\n[3, 0]\n[3, 0]\n[3, 0]\n[3, 0]\n[2, 1]\n[1, 2]]"] ;
111 -> 112 ;
113 [label="gini = 0.0\nsamples = 1\nvalue = [[1, 0]\n[1, 0]\n[1, 0]\n[1, 0]\n[1, 0]\n[1, 0]\n[1, 0]\n[1, 0]\n[1, 0]\n[1, 0]\n[0, 1]\n[1, 0]]"] ;
112 -> 113 ;
114 [label="gini = 0.0\nsamples = 2\nvalue = [[2, 0]\n[2, 0]\n[2, 0]\n[2, 0]\n[2, 0]\n[2, 0]\n[2, 0]\n[2, 0]\n[2, 0]\n[2, 0]\n[2, 0]\n[0, 2]]"] ;
112 -> 114 ;
115 [label="gini = 0.0\nsamples = 9\nvalue = [[9, 0]\n[9, 0]\n[9, 0]\n[9, 0]\n[9, 0]\n[9, 0]\n[9, 0]\n[9, 0]\n[9, 0]\n[9, 0]\n[0, 9]\n[9, 0]]"] ;
111 -> 115 ;
116 [label="X[9] <= 0.252\ngini = 0.074\nsamples = 15\nvalue = [[15, 0]\n[15, 0]\n[15, 0]\n[15, 0]\n[15, 0]\n[15, 0]\n[15, 0]\n[15, 0]\n[15, 0]\n[15, 0]\n[10, 5]\n[5, 10]]"] ;
110 -> 116 ;
117 [label="X[6] <= -1.473\ngini = 0.046\nsamples = 12\nvalue = [[12, 0]\n[12, 0]\n[12, 0]\n[12, 0]\n[12, 0]\n[12, 0]\n[12, 0]\n[12, 0]\n[12, 0]\n[12, 0]\n[10, 2]\n[2, 10]]"] ;
116 -> 117 ;
118 [label="X[4] <= -1.286\ngini = 0.08\nsamples = 5\nvalue = [[5, 0]\n[5, 0]\n[5, 0]\n[5, 0]\n[5, 0]\n[5, 0]\n[5, 0]\n[5, 0]\n[5, 0]\n[5, 0]\n[3, 2]\n[2, 3]]"] ;
117 -> 118 ;
119 [label="gini = 0.0\nsamples = 3\nvalue = [[3, 0]\n[3, 0]\n[3, 0]\n[3, 0]\n[3, 0]\n[3, 0]\n[3, 0]\n[3, 0]\n[3, 0]\n[3, 0]\n[3, 0]\n[0, 3]]"] ;
118 -> 119 ;
120 [label="gini = 0.0\nsamples = 2\nvalue = [[2, 0]\n[2, 0]\n[2, 0]\n[2, 0]\n[2, 0]\n[2, 0]\n[2, 0]\n[2, 0]\n[2, 0]\n[2, 0]\n[0, 2]\n[2, 0]]"] ;
118 -> 120 ;
121 [label="gini = 0.0\nsamples = 7\nvalue = [[7, 0]\n[7, 0]\n[7, 0]\n[7, 0]\n[7, 0]\n[7, 0]\n[7, 0]\n[7, 0]\n[7, 0]\n[7, 0]\n[7, 0]\n[0, 7]]"] ;
117 -> 121 ;
122 [label="gini = 0.0\nsamples = 3\nvalue = [[3, 0]\n[3, 0]\n[3, 0]\n[3, 0]\n[3, 0]\n[3, 0]\n[3, 0]\n[3, 0]\n[3, 0]\n[3, 0]\n[0, 3]\n[3, 0]]"] ;
116 -> 122 ;
123 [label="X[4] <= -1.255\ngini = 0.029\nsamples = 21\nvalue = [[21, 0]\n[21, 0]\n[21, 0]\n[21, 0]\n[21, 0]\n[21, 0]\n[21, 0]\n[21, 0]\n[21, 0]\n[21, 0]\n[19, 2]\n[2, 19]]"] ;
109 -> 123 ;
124 [label="gini = 0.0\nsamples = 17\nvalue = [[17, 0]\n[17, 0]\n[17, 0]\n[17, 0]\n[17, 0]\n[17, 0]\n[17, 0]\n[17, 0]\n[17, 0]\n[17, 0]\n[17, 0]\n[0, 17]]"] ;
123 -> 124 ;
125 [label="X[4] <= -1.206\ngini = 0.083\nsamples = 4\nvalue = [[4, 0]\n[4, 0]\n[4, 0]\n[4, 0]\n[4, 0]\n[4, 0]\n[4, 0]\n[4, 0]\n[4, 0]\n[4, 0]\n[2, 2]\n[2, 2]]"] ;
123 -> 125 ;
126 [label="gini = 0.0\nsamples = 2\nvalue = [[2, 0]\n[2, 0]\n[2, 0]\n[2, 0]\n[2, 0]\n[2, 0]\n[2, 0]\n[2, 0]\n[2, 0]\n[2, 0]\n[0, 2]\n[2, 0]]"] ;
125 -> 126 ;
127 [label="gini = 0.0\nsamples = 2\nvalue = [[2, 0]\n[2, 0]\n[2, 0]\n[2, 0]\n[2, 0]\n[2, 0]\n[2, 0]\n[2, 0]\n[2, 0]\n[2, 0]\n[2, 0]\n[0, 2]]"] ;
125 -> 127 ;
128 [label="X[8] <= -1.417\ngini = 0.074\nsamples = 132\nvalue = [[132, 0]\n[132, 0]\n[132, 0]\n[132, 0]\n[132, 0]\n[131, 1]\n[130, 2]\n[132, 0]\n[132, 0]\n[131, 1]\n[41, 91]\n[95, 37]]"] ;
108 -> 128 ;
129 [label="X[5] <= -1.296\ngini = 0.083\nsamples = 41\nvalue = [[41, 0]\n[41, 0]\n[41, 0]\n[41, 0]\n[41, 0]\n[41, 0]\n[41, 0]\n[41, 0]\n[41, 0]\n[41, 0]\n[20, 21]\n[21, 20]]"] ;
128 -> 129 ;
130 [label="X[7] <= -0.927\ngini = 0.057\nsamples = 23\nvalue = [[23, 0]\n[23, 0]\n[23, 0]\n[23, 0]\n[23, 0]\n[23, 0]\n[23, 0]\n[23, 0]\n[23, 0]\n[23, 0]\n[5, 18]\n[18, 5]]"] ;
129 -> 130 ;
131 [label="X[0] <= -1.001\ngini = 0.078\nsamples = 8\nvalue = [[8, 0]\n[8, 0]\n[8, 0]\n[8, 0]\n[8, 0]\n[8, 0]\n[8, 0]\n[8, 0]\n[8, 0]\n[8, 0]\n[5, 3]\n[3, 5]]"] ;
130 -> 131 ;
132 [label="gini = 0.0\nsamples = 4\nvalue = [[4, 0]\n[4, 0]\n[4, 0]\n[4, 0]\n[4, 0]\n[4, 0]\n[4, 0]\n[4, 0]\n[4, 0]\n[4, 0]\n[4, 0]\n[0, 4]]"] ;
131 -> 132 ;
133 [label="X[8] <= -1.447\ngini = 0.062\nsamples = 4\nvalue = [[4, 0]\n[4, 0]\n[4, 0]\n[4, 0]\n[4, 0]\n[4, 0]\n[4, 0]\n[4, 0]\n[4, 0]\n[4, 0]\n[1, 3]\n[3, 1]]"] ;
131 -> 133 ;
134 [label="gini = 0.0\nsamples = 1\nvalue = [[1, 0]\n[1, 0]\n[1, 0]\n[1, 0]\n[1, 0]\n[1, 0]\n[1, 0]\n[1, 0]\n[1, 0]\n[1, 0]\n[1, 0]\n[0, 1]]"] ;
133 -> 134 ;
135 [label="gini = 0.0\nsamples = 3\nvalue = [[3, 0]\n[3, 0]\n[3, 0]\n[3, 0]\n[3, 0]\n[3, 0]\n[3, 0]\n[3, 0]\n[3, 0]\n[3, 0]\n[0, 3]\n[3, 0]]"] ;
133 -> 135 ;
136 [label="gini = 0.0\nsamples = 15\nvalue = [[15, 0]\n[15, 0]\n[15, 0]\n[15, 0]\n[15, 0]\n[15, 0]\n[15, 0]\n[15, 0]\n[15, 0]\n[15, 0]\n[0, 15]\n[15, 0]]"] ;
130 -> 136 ;
137 [label="X[7] <= -0.714\ngini = 0.046\nsamples = 18\nvalue = [[18, 0]\n[18, 0]\n[18, 0]\n[18, 0]\n[18, 0]\n[18, 0]\n[18, 0]\n[18, 0]\n[18, 0]\n[18, 0]\n[15, 3]\n[3, 15]]"] ;
129 -> 137 ;
138 [label="gini = 0.0\nsamples = 12\nvalue = [[12, 0]\n[12, 0]\n[12, 0]\n[12, 0]\n[12, 0]\n[12, 0]\n[12, 0]\n[12, 0]\n[12, 0]\n[12, 0]\n[12, 0]\n[0, 12]]"] ;
137 -> 138 ;
139 [label="X[6] <= -1.278\ngini = 0.083\nsamples = 6\nvalue = [[6, 0]\n[6, 0]\n[6, 0]\n[6, 0]\n[6, 0]\n[6, 0]\n[6, 0]\n[6, 0]\n[6, 0]\n[6, 0]\n[3, 3]\n[3, 3]]"] ;
137 -> 139 ;
140 [label="gini = 0.0\nsamples = 3\nvalue = [[3, 0]\n[3, 0]\n[3, 0]\n[3, 0]\n[3, 0]\n[3, 0]\n[3, 0]\n[3, 0]\n[3, 0]\n[3, 0]\n[0, 3]\n[3, 0]]"] ;
139 -> 140 ;
141 [label="gini = 0.0\nsamples = 3\nvalue = [[3, 0]\n[3, 0]\n[3, 0]\n[3, 0]\n[3, 0]\n[3, 0]\n[3, 0]\n[3, 0]\n[3, 0]\n[3, 0]\n[3, 0]\n[0, 3]]"] ;
139 -> 141 ;
142 [label="X[4] <= -0.811\ngini = 0.062\nsamples = 91\nvalue = [[91, 0]\n[91, 0]\n[91, 0]\n[91, 0]\n[91, 0]\n[90, 1]\n[89, 2]\n[91, 0]\n[91, 0]\n[90, 1]\n[21, 70]\n[74, 17]]"] ;
128 -> 142 ;
143 [label="X[4] <= -1.271\ngini = 0.053\nsamples = 87\nvalue = [[87, 0]\n[87, 0]\n[87, 0]\n[87, 0]\n[87, 0]\n[87, 0]\n[87, 0]\n[87, 0]\n[87, 0]\n[86, 1]\n[17, 70]\n[71, 16]]"] ;
142 -> 143 ;
144 [label="X[4] <= -1.31\ngini = 0.08\nsamples = 36\nvalue = [[36, 0]\n[36, 0]\n[36, 0]\n[36, 0]\n[36, 0]\n[36, 0]\n[36, 0]\n[36, 0]\n[36, 0]\n[35, 1]\n[13, 23]\n[24, 12]]"] ;
143 -> 144 ;
145 [label="X[8] <= -1.271\ngini = 0.062\nsamples = 26\nvalue = [[26, 0]\n[26, 0]\n[26, 0]\n[26, 0]\n[26, 0]\n[26, 0]\n[26, 0]\n[26, 0]\n[26, 0]\n[25, 1]\n[6, 20]\n[21, 5]]"] ;
144 -> 145 ;
146 [label="X[0] <= -1.021\ngini = 0.039\nsamples = 22\nvalue = [[22, 0]\n[22, 0]\n[22, 0]\n[22, 0]\n[22, 0]\n[22, 0]\n[22, 0]\n[22, 0]\n[22, 0]\n[22, 0]\n[3, 19]\n[19, 3]]"] ;
145 -> 146 ;
147 [label="gini = 0.0\nsamples = 12\nvalue = [[12, 0]\n[12, 0]\n[12, 0]\n[12, 0]\n[12, 0]\n[12, 0]\n[12, 0]\n[12, 0]\n[12, 0]\n[12, 0]\n[0, 12]\n[12, 0]]"] ;
146 -> 147 ;
148 [label="X[7] <= -0.856\ngini = 0.07\nsamples = 10\nvalue = [[10, 0]\n[10, 0]\n[10, 0]\n[10, 0]\n[10, 0]\n[10, 0]\n[10, 0]\n[10, 0]\n[10, 0]\n[10, 0]\n[3, 7]\n[7, 3]]"] ;
146 -> 148 ;
149 [label="X[8] <= -1.331\ngini = 0.08\nsamples = 5\nvalue = [[5, 0]\n[5, 0]\n[5, 0]\n[5, 0]\n[5, 0]\n[5, 0]\n[5, 0]\n[5, 0]\n[5, 0]\n[5, 0]\n[3, 2]\n[2, 3]]"] ;
148 -> 149 ;
150 [label="gini = 0.0\nsamples = 3\nvalue = [[3, 0]\n[3, 0]\n[3, 0]\n[3, 0]\n[3, 0]\n[3, 0]\n[3, 0]\n[3, 0]\n[3, 0]\n[3, 0]\n[3, 0]\n[0, 3]]"] ;
149 -> 150 ;
151 [label="gini = 0.0\nsamples = 2\nvalue = [[2, 0]\n[2, 0]\n[2, 0]\n[2, 0]\n[2, 0]\n[2, 0]\n[2, 0]\n[2, 0]\n[2, 0]\n[2, 0]\n[0, 2]\n[2, 0]]"] ;
149 -> 151 ;
152 [label="gini = 0.0\nsamples = 5\nvalue = [[5, 0]\n[5, 0]\n[5, 0]\n[5, 0]\n[5, 0]\n[5, 0]\n[5, 0]\n[5, 0]\n[5, 0]\n[5, 0]\n[0, 5]\n[5, 0]]"] ;
148 -> 152 ;
153 [label="X[9] <= -0.819\ngini = 0.104\nsamples = 4\nvalue = [[4, 0]\n[4, 0]\n[4, 0]\n[4, 0]\n[4, 0]\n[4, 0]\n[4, 0]\n[4, 0]\n[4, 0]\n[3, 1]\n[3, 1]\n[2, 2]]"] ;
145 -> 153 ;
154 [label="X[4] <= -1.328\ngini = 0.083\nsamples = 2\nvalue = [[2, 0]\n[2, 0]\n[2, 0]\n[2, 0]\n[2, 0]\n[2, 0]\n[2, 0]\n[2, 0]\n[2, 0]\n[1, 1]\n[1, 1]\n[2, 0]]"] ;
153 -> 154 ;
155 [label="gini = 0.0\nsamples = 1\nvalue = [[1, 0]\n[1, 0]\n[1, 0]\n[1, 0]\n[1, 0]\n[1, 0]\n[1, 0]\n[1, 0]\n[1, 0]\n[0, 1]\n[1, 0]\n[1, 0]]"] ;
154 -> 155 ;
156 [label="gini = 0.0\nsamples = 1\nvalue = [[1, 0]\n[1, 0]\n[1, 0]\n[1, 0]\n[1, 0]\n[1, 0]\n[1, 0]\n[1, 0]\n[1, 0]\n[1, 0]\n[0, 1]\n[1, 0]]"] ;
154 -> 156 ;
157 [label="gini = 0.0\nsamples = 2\nvalue = [[2, 0]\n[2, 0]\n[2, 0]\n[2, 0]\n[2, 0]\n[2, 0]\n[2, 0]\n[2, 0]\n[2, 0]\n[2, 0]\n[2, 0]\n[0, 2]]"] ;
153 -> 157 ;
158 [label="X[6] <= -1.215\ngini = 0.07\nsamples = 10\nvalue = [[10, 0]\n[10, 0]\n[10, 0]\n[10, 0]\n[10, 0]\n[10, 0]\n[10, 0]\n[10, 0]\n[10, 0]\n[10, 0]\n[7, 3]\n[3, 7]]"] ;
144 -> 158 ;
159 [label="X[9] <= -1.626\ngini = 0.036\nsamples = 8\nvalue = [[8, 0]\n[8, 0]\n[8, 0]\n[8, 0]\n[8, 0]\n[8, 0]\n[8, 0]\n[8, 0]\n[8, 0]\n[8, 0]\n[7, 1]\n[1, 7]]"] ;
158 -> 159 ;
160 [label="gini = 0.0\nsamples = 1\nvalue = [[1, 0]\n[1, 0]\n[1, 0]\n[1, 0]\n[1, 0]\n[1, 0]\n[1, 0]\n[1, 0]\n[1, 0]\n[1, 0]\n[0, 1]\n[1, 0]]"] ;
159 -> 160 ;
161 [label="gini = 0.0\nsamples = 7\nvalue = [[7, 0]\n[7, 0]\n[7, 0]\n[7, 0]\n[7, 0]\n[7, 0]\n[7, 0]\n[7, 0]\n[7, 0]\n[7, 0]\n[7, 0]\n[0, 7]]"] ;
159 -> 161 ;
162 [label="gini = 0.0\nsamples = 2\nvalue = [[2, 0]\n[2, 0]\n[2, 0]\n[2, 0]\n[2, 0]\n[2, 0]\n[2, 0]\n[2, 0]\n[2, 0]\n[2, 0]\n[0, 2]\n[2, 0]]"] ;
158 -> 162 ;
163 [label="X[8] <= -1.391\ngini = 0.024\nsamples = 51\nvalue = [[51, 0]\n[51, 0]\n[51, 0]\n[51, 0]\n[51, 0]\n[51, 0]\n[51, 0]\n[51, 0]\n[51, 0]\n[51, 0]\n[4, 47]\n[47, 4]]"] ;
143 -> 163 ;
164 [label="X[4] <= -1.253\ngini = 0.074\nsamples = 3\nvalue = [[3, 0]\n[3, 0]\n[3, 0]\n[3, 0]\n[3, 0]\n[3, 0]\n[3, 0]\n[3, 0]\n[3, 0]\n[3, 0]\n[2, 1]\n[1, 2]]"] ;
163 -> 164 ;
165 [label="gini = 0.0\nsamples = 1\nvalue = [[1, 0]\n[1, 0]\n[1, 0]\n[1, 0]\n[1, 0]\n[1, 0]\n[1, 0]\n[1, 0]\n[1, 0]\n[1, 0]\n[0, 1]\n[1, 0]]"] ;
164 -> 165 ;
166 [label="gini = 0.0\nsamples = 2\nvalue = [[2, 0]\n[2, 0]\n[2, 0]\n[2, 0]\n[2, 0]\n[2, 0]\n[2, 0]\n[2, 0]\n[2, 0]\n[2, 0]\n[2, 0]\n[0, 2]]"] ;
164 -> 166 ;
167 [label="X[6] <= -1.382\ngini = 0.013\nsamples = 48\nvalue = [[48, 0]\n[48, 0]\n[48, 0]\n[48, 0]\n[48, 0]\n[48, 0]\n[48, 0]\n[48, 0]\n[48, 0]\n[48, 0]\n[2, 46]\n[46, 2]]"] ;
163 -> 167 ;
168 [label="X[6] <= -1.4\ngini = 0.03\nsamples = 20\nvalue = [[20, 0]\n[20, 0]\n[20, 0]\n[20, 0]\n[20, 0]\n[20, 0]\n[20, 0]\n[20, 0]\n[20, 0]\n[20, 0]\n[2, 18]\n[18, 2]]"] ;
167 -> 168 ;
169 [label="X[3] <= -1.193\ngini = 0.017\nsamples = 19\nvalue = [[19, 0]\n[19, 0]\n[19, 0]\n[19, 0]\n[19, 0]\n[19, 0]\n[19, 0]\n[19, 0]\n[19, 0]\n[19, 0]\n[1, 18]\n[18, 1]]"] ;
168 -> 169 ;
170 [label="X[9] <= -1.139\ngini = 0.074\nsamples = 3\nvalue = [[3, 0]\n[3, 0]\n[3, 0]\n[3, 0]\n[3, 0]\n[3, 0]\n[3, 0]\n[3, 0]\n[3, 0]\n[3, 0]\n[1, 2]\n[2, 1]]"] ;
169 -> 170 ;
171 [label="gini = 0.0\nsamples = 1\nvalue = [[1, 0]\n[1, 0]\n[1, 0]\n[1, 0]\n[1, 0]\n[1, 0]\n[1, 0]\n[1, 0]\n[1, 0]\n[1, 0]\n[1, 0]\n[0, 1]]"] ;
170 -> 171 ;
172 [label="gini = 0.0\nsamples = 2\nvalue = [[2, 0]\n[2, 0]\n[2, 0]\n[2, 0]\n[2, 0]\n[2, 0]\n[2, 0]\n[2, 0]\n[2, 0]\n[2, 0]\n[0, 2]\n[2, 0]]"] ;
170 -> 172 ;
173 [label="gini = 0.0\nsamples = 16\nvalue = [[16, 0]\n[16, 0]\n[16, 0]\n[16, 0]\n[16, 0]\n[16, 0]\n[16, 0]\n[16, 0]\n[16, 0]\n[16, 0]\n[0, 16]\n[16, 0]]"] ;
169 -> 173 ;
174 [label="gini = 0.0\nsamples = 1\nvalue = [[1, 0]\n[1, 0]\n[1, 0]\n[1, 0]\n[1, 0]\n[1, 0]\n[1, 0]\n[1, 0]\n[1, 0]\n[1, 0]\n[1, 0]\n[0, 1]]"] ;
168 -> 174 ;
175 [label="gini = 0.0\nsamples = 28\nvalue = [[28, 0]\n[28, 0]\n[28, 0]\n[28, 0]\n[28, 0]\n[28, 0]\n[28, 0]\n[28, 0]\n[28, 0]\n[28, 0]\n[0, 28]\n[28, 0]]"] ;
167 -> 175 ;
176 [label="X[6] <= -1.274\ngini = 0.104\nsamples = 4\nvalue = [[4, 0]\n[4, 0]\n[4, 0]\n[4, 0]\n[4, 0]\n[3, 1]\n[2, 2]\n[4, 0]\n[4, 0]\n[4, 0]\n[4, 0]\n[3, 1]]"] ;
142 -> 176 ;
177 [label="X[6] <= -1.529\ngini = 0.083\nsamples = 2\nvalue = [[2, 0]\n[2, 0]\n[2, 0]\n[2, 0]\n[2, 0]\n[1, 1]\n[2, 0]\n[2, 0]\n[2, 0]\n[2, 0]\n[2, 0]\n[1, 1]]"] ;
176 -> 177 ;
178 [label="gini = 0.0\nsamples = 1\nvalue = [[1, 0]\n[1, 0]\n[1, 0]\n[1, 0]\n[1, 0]\n[1, 0]\n[1, 0]\n[1, 0]\n[1, 0]\n[1, 0]\n[1, 0]\n[0, 1]]"] ;
177 -> 178 ;
179 [label="gini = 0.0\nsamples = 1\nvalue = [[1, 0]\n[1, 0]\n[1, 0]\n[1, 0]\n[1, 0]\n[0, 1]\n[1, 0]\n[1, 0]\n[1, 0]\n[1, 0]\n[1, 0]\n[1, 0]]"] ;
177 -> 179 ;
180 [label="gini = 0.0\nsamples = 2\nvalue = [[2, 0]\n[2, 0]\n[2, 0]\n[2, 0]\n[2, 0]\n[2, 0]\n[0, 2]\n[2, 0]\n[2, 0]\n[2, 0]\n[2, 0]\n[2, 0]]"] ;
176 -> 180 ;
181 [label="X[4] <= -1.049\ngini = 0.054\nsamples = 589\nvalue = [[589, 0]\n[589, 0]\n[589, 0]\n[587, 2]\n[589, 0]\n[582, 7]\n[586, 3]\n[589, 0]\n[585, 4]\n[588, 1]\n[490, 99]\n[116, 473]]"] ;
15 -> 181 ;
182 [label="X[7] <= -0.832\ngini = 0.045\nsamples = 562\nvalue = [[562, 0]\n[562, 0]\n[562, 0]\n[562, 0]\n[562, 0]\n[562, 0]\n[562, 0]\n[562, 0]\n[561, 1]\n[562, 0]\n[473, 89]\n[90, 472]]"] ;
181 -> 182 ;
183 [label="X[6] <= -0.967\ngini = 0.033\nsamples = 424\nvalue = [[424, 0]\n[424, 0]\n[424, 0]\n[424, 0]\n[424, 0]\n[424, 0]\n[424, 0]\n[424, 0]\n[424, 0]\n[424, 0]\n[377, 47]\n[47, 377]]"] ;
182 -> 183 ;
184 [label="X[4] <= -1.319\ngini = 0.056\nsamples = 168\nvalue = [[168, 0]\n[168, 0]\n[168, 0]\n[168, 0]\n[168, 0]\n[168, 0]\n[168, 0]\n[168, 0]\n[168, 0]\n[168, 0]\n[132, 36]\n[36, 132]]"] ;
183 -> 184 ;
185 [label="X[5] <= -1.776\ngini = 0.03\nsamples = 111\nvalue = [[111, 0]\n[111, 0]\n[111, 0]\n[111, 0]\n[111, 0]\n[111, 0]\n[111, 0]\n[111, 0]\n[111, 0]\n[111, 0]\n[100, 11]\n[11, 100]]"] ;
184 -> 185 ;
186 [label="X[7] <= -1.316\ngini = 0.074\nsamples = 15\nvalue = [[15, 0]\n[15, 0]\n[15, 0]\n[15, 0]\n[15, 0]\n[15, 0]\n[15, 0]\n[15, 0]\n[15, 0]\n[15, 0]\n[10, 5]\n[5, 10]]"] ;
185 -> 186 ;
187 [label="gini = 0.0\nsamples = 10\nvalue = [[10, 0]\n[10, 0]\n[10, 0]\n[10, 0]\n[10, 0]\n[10, 0]\n[10, 0]\n[10, 0]\n[10, 0]\n[10, 0]\n[10, 0]\n[0, 10]]"] ;
186 -> 187 ;
188 [label="gini = 0.0\nsamples = 5\nvalue = [[5, 0]\n[5, 0]\n[5, 0]\n[5, 0]\n[5, 0]\n[5, 0]\n[5, 0]\n[5, 0]\n[5, 0]\n[5, 0]\n[0, 5]\n[5, 0]]"] ;
186 -> 188 ;
189 [label="X[0] <= -0.961\ngini = 0.02\nsamples = 96\nvalue = [[96, 0]\n[96, 0]\n[96, 0]\n[96, 0]\n[96, 0]\n[96, 0]\n[96, 0]\n[96, 0]\n[96, 0]\n[96, 0]\n[90, 6]\n[6, 90]]"] ;
185 -> 189 ;
190 [label="X[4] <= -1.344\ngini = 0.014\nsamples = 93\nvalue = [[93, 0]\n[93, 0]\n[93, 0]\n[93, 0]\n[93, 0]\n[93, 0]\n[93, 0]\n[93, 0]\n[93, 0]\n[93, 0]\n[89, 4]\n[4, 89]]"] ;
189 -> 190 ;
191 [label="X[1] <= -0.065\ngini = 0.004\nsamples = 78\nvalue = [[78, 0]\n[78, 0]\n[78, 0]\n[78, 0]\n[78, 0]\n[78, 0]\n[78, 0]\n[78, 0]\n[78, 0]\n[78, 0]\n[77, 1]\n[1, 77]]"] ;
190 -> 191 ;
192 [label="gini = 0.0\nsamples = 75\nvalue = [[75, 0]\n[75, 0]\n[75, 0]\n[75, 0]\n[75, 0]\n[75, 0]\n[75, 0]\n[75, 0]\n[75, 0]\n[75, 0]\n[75, 0]\n[0, 75]]"] ;
191 -> 192 ;
193 [label="X[6] <= -1.088\ngini = 0.074\nsamples = 3\nvalue = [[3, 0]\n[3, 0]\n[3, 0]\n[3, 0]\n[3, 0]\n[3, 0]\n[3, 0]\n[3, 0]\n[3, 0]\n[3, 0]\n[2, 1]\n[1, 2]]"] ;
191 -> 193 ;
194 [label="gini = 0.0\nsamples = 1\nvalue = [[1, 0]\n[1, 0]\n[1, 0]\n[1, 0]\n[1, 0]\n[1, 0]\n[1, 0]\n[1, 0]\n[1, 0]\n[1, 0]\n[0, 1]\n[1, 0]]"] ;
193 -> 194 ;
195 [label="gini = 0.0\nsamples = 2\nvalue = [[2, 0]\n[2, 0]\n[2, 0]\n[2, 0]\n[2, 0]\n[2, 0]\n[2, 0]\n[2, 0]\n[2, 0]\n[2, 0]\n[2, 0]\n[0, 2]]"] ;
193 -> 195 ;
196 [label="X[5] <= -1.456\ngini = 0.053\nsamples = 15\nvalue = [[15, 0]\n[15, 0]\n[15, 0]\n[15, 0]\n[15, 0]\n[15, 0]\n[15, 0]\n[15, 0]\n[15, 0]\n[15, 0]\n[12, 3]\n[3, 12]]"] ;
190 -> 196 ;
197 [label="X[4] <= -1.337\ngini = 0.083\nsamples = 6\nvalue = [[6, 0]\n[6, 0]\n[6, 0]\n[6, 0]\n[6, 0]\n[6, 0]\n[6, 0]\n[6, 0]\n[6, 0]\n[6, 0]\n[3, 3]\n[3, 3]]"] ;
196 -> 197 ;
198 [label="gini = 0.0\nsamples = 2\nvalue = [[2, 0]\n[2, 0]\n[2, 0]\n[2, 0]\n[2, 0]\n[2, 0]\n[2, 0]\n[2, 0]\n[2, 0]\n[2, 0]\n[0, 2]\n[2, 0]]"] ;
197 -> 198 ;
199 [label="X[0] <= -1.04\ngini = 0.062\nsamples = 4\nvalue = [[4, 0]\n[4, 0]\n[4, 0]\n[4, 0]\n[4, 0]\n[4, 0]\n[4, 0]\n[4, 0]\n[4, 0]\n[4, 0]\n[3, 1]\n[1, 3]]"] ;
197 -> 199 ;
200 [label="gini = 0.0\nsamples = 1\nvalue = [[1, 0]\n[1, 0]\n[1, 0]\n[1, 0]\n[1, 0]\n[1, 0]\n[1, 0]\n[1, 0]\n[1, 0]\n[1, 0]\n[0, 1]\n[1, 0]]"] ;
199 -> 200 ;
201 [label="gini = 0.0\nsamples = 3\nvalue = [[3, 0]\n[3, 0]\n[3, 0]\n[3, 0]\n[3, 0]\n[3, 0]\n[3, 0]\n[3, 0]\n[3, 0]\n[3, 0]\n[3, 0]\n[0, 3]]"] ;
199 -> 201 ;
202 [label="gini = 0.0\nsamples = 9\nvalue = [[9, 0]\n[9, 0]\n[9, 0]\n[9, 0]\n[9, 0]\n[9, 0]\n[9, 0]\n[9, 0]\n[9, 0]\n[9, 0]\n[9, 0]\n[0, 9]]"] ;
196 -> 202 ;
203 [label="X[7] <= -1.174\ngini = 0.074\nsamples = 3\nvalue = [[3, 0]\n[3, 0]\n[3, 0]\n[3, 0]\n[3, 0]\n[3, 0]\n[3, 0]\n[3, 0]\n[3, 0]\n[3, 0]\n[1, 2]\n[2, 1]]"] ;
189 -> 203 ;
204 [label="gini = 0.0\nsamples = 1\nvalue = [[1, 0]\n[1, 0]\n[1, 0]\n[1, 0]\n[1, 0]\n[1, 0]\n[1, 0]\n[1, 0]\n[1, 0]\n[1, 0]\n[1, 0]\n[0, 1]]"] ;
203 -> 204 ;
205 [label="gini = 0.0\nsamples = 2\nvalue = [[2, 0]\n[2, 0]\n[2, 0]\n[2, 0]\n[2, 0]\n[2, 0]\n[2, 0]\n[2, 0]\n[2, 0]\n[2, 0]\n[0, 2]\n[2, 0]]"] ;
203 -> 205 ;
206 [label="X[7] <= -1.186\ngini = 0.082\nsamples = 57\nvalue = [[57, 0]\n[57, 0]\n[57, 0]\n[57, 0]\n[57, 0]\n[57, 0]\n[57, 0]\n[57, 0]\n[57, 0]\n[57, 0]\n[32, 25]\n[25, 32]]"] ;
184 -> 206 ;
207 [label="X[8] <= -1.452\ngini = 0.018\nsamples = 17\nvalue = [[17, 0]\n[17, 0]\n[17, 0]\n[17, 0]\n[17, 0]\n[17, 0]\n[17, 0]\n[17, 0]\n[17, 0]\n[17, 0]\n[16, 1]\n[1, 16]]"] ;
206 -> 207 ;
208 [label="gini = 0.0\nsamples = 1\nvalue = [[1, 0]\n[1, 0]\n[1, 0]\n[1, 0]\n[1, 0]\n[1, 0]\n[1, 0]\n[1, 0]\n[1, 0]\n[1, 0]\n[0, 1]\n[1, 0]]"] ;
207 -> 208 ;
209 [label="gini = 0.0\nsamples = 16\nvalue = [[16, 0]\n[16, 0]\n[16, 0]\n[16, 0]\n[16, 0]\n[16, 0]\n[16, 0]\n[16, 0]\n[16, 0]\n[16, 0]\n[16, 0]\n[0, 16]]"] ;
207 -> 209 ;
210 [label="X[5] <= -1.536\ngini = 0.08\nsamples = 40\nvalue = [[40, 0]\n[40, 0]\n[40, 0]\n[40, 0]\n[40, 0]\n[40, 0]\n[40, 0]\n[40, 0]\n[40, 0]\n[40, 0]\n[16, 24]\n[24, 16]]"] ;
206 -> 210 ;
211 [label="gini = 0.0\nsamples = 15\nvalue = [[15, 0]\n[15, 0]\n[15, 0]\n[15, 0]\n[15, 0]\n[15, 0]\n[15, 0]\n[15, 0]\n[15, 0]\n[15, 0]\n[0, 15]\n[15, 0]]"] ;
210 -> 211 ;
212 [label="X[5] <= -1.456\ngini = 0.077\nsamples = 25\nvalue = [[25, 0]\n[25, 0]\n[25, 0]\n[25, 0]\n[25, 0]\n[25, 0]\n[25, 0]\n[25, 0]\n[25, 0]\n[25, 0]\n[16, 9]\n[9, 16]]"] ;
210 -> 212 ;
213 [label="X[4] <= -1.236\ngini = 0.08\nsamples = 10\nvalue = [[10, 0]\n[10, 0]\n[10, 0]\n[10, 0]\n[10, 0]\n[10, 0]\n[10, 0]\n[10, 0]\n[10, 0]\n[10, 0]\n[4, 6]\n[6, 4]]"] ;
212 -> 213 ;
214 [label="X[3] <= -1.193\ngini = 0.074\nsamples = 6\nvalue = [[6, 0]\n[6, 0]\n[6, 0]\n[6, 0]\n[6, 0]\n[6, 0]\n[6, 0]\n[6, 0]\n[6, 0]\n[6, 0]\n[4, 2]\n[2, 4]]"] ;
213 -> 214 ;
215 [label="gini = 0.0\nsamples = 2\nvalue = [[2, 0]\n[2, 0]\n[2, 0]\n[2, 0]\n[2, 0]\n[2, 0]\n[2, 0]\n[2, 0]\n[2, 0]\n[2, 0]\n[0, 2]\n[2, 0]]"] ;
214 -> 215 ;
216 [label="gini = 0.0\nsamples = 4\nvalue = [[4, 0]\n[4, 0]\n[4, 0]\n[4, 0]\n[4, 0]\n[4, 0]\n[4, 0]\n[4, 0]\n[4, 0]\n[4, 0]\n[4, 0]\n[0, 4]]"] ;
214 -> 216 ;
217 [label="gini = 0.0\nsamples = 4\nvalue = [[4, 0]\n[4, 0]\n[4, 0]\n[4, 0]\n[4, 0]\n[4, 0]\n[4, 0]\n[4, 0]\n[4, 0]\n[4, 0]\n[0, 4]\n[4, 0]]"] ;
213 -> 217 ;
218 [label="X[6] <= -0.983\ngini = 0.053\nsamples = 15\nvalue = [[15, 0]\n[15, 0]\n[15, 0]\n[15, 0]\n[15, 0]\n[15, 0]\n[15, 0]\n[15, 0]\n[15, 0]\n[15, 0]\n[12, 3]\n[3, 12]]"] ;
212 -> 218 ;
219 [label="X[7] <= -0.856\ngini = 0.024\nsamples = 13\nvalue = [[13, 0]\n[13, 0]\n[13, 0]\n[13, 0]\n[13, 0]\n[13, 0]\n[13, 0]\n[13, 0]\n[13, 0]\n[13, 0]\n[12, 1]\n[1, 12]]"] ;
218 -> 219 ;
220 [label="gini = 0.0\nsamples = 12\nvalue = [[12, 0]\n[12, 0]\n[12, 0]\n[12, 0]\n[12, 0]\n[12, 0]\n[12, 0]\n[12, 0]\n[12, 0]\n[12, 0]\n[12, 0]\n[0, 12]]"] ;
219 -> 220 ;
221 [label="gini = 0.0\nsamples = 1\nvalue = [[1, 0]\n[1, 0]\n[1, 0]\n[1, 0]\n[1, 0]\n[1, 0]\n[1, 0]\n[1, 0]\n[1, 0]\n[1, 0]\n[0, 1]\n[1, 0]]"] ;
219 -> 221 ;
222 [label="gini = 0.0\nsamples = 2\nvalue = [[2, 0]\n[2, 0]\n[2, 0]\n[2, 0]\n[2, 0]\n[2, 0]\n[2, 0]\n[2, 0]\n[2, 0]\n[2, 0]\n[0, 2]\n[2, 0]]"] ;
218 -> 222 ;
223 [label="X[5] <= -0.456\ngini = 0.014\nsamples = 256\nvalue = [[256, 0]\n[256, 0]\n[256, 0]\n[256, 0]\n[256, 0]\n[256, 0]\n[256, 0]\n[256, 0]\n[256, 0]\n[256, 0]\n[245, 11]\n[11, 245]]"] ;
183 -> 223 ;
224 [label="X[9] <= 1.101\ngini = 0.013\nsamples = 255\nvalue = [[255, 0]\n[255, 0]\n[255, 0]\n[255, 0]\n[255, 0]\n[255, 0]\n[255, 0]\n[255, 0]\n[255, 0]\n[255, 0]\n[245, 10]\n[10, 245]]"] ;
223 -> 224 ;
225 [label="X[5] <= -1.856\ngini = 0.008\nsamples = 232\nvalue = [[232, 0]\n[232, 0]\n[232, 0]\n[232, 0]\n[232, 0]\n[232, 0]\n[232, 0]\n[232, 0]\n[232, 0]\n[232, 0]\n[226, 6]\n[6, 226]]"] ;
224 -> 225 ;
226 [label="X[8] <= -1.323\ngini = 0.062\nsamples = 8\nvalue = [[8, 0]\n[8, 0]\n[8, 0]\n[8, 0]\n[8, 0]\n[8, 0]\n[8, 0]\n[8, 0]\n[8, 0]\n[8, 0]\n[6, 2]\n[2, 6]]"] ;
225 -> 226 ;
227 [label="gini = 0.0\nsamples = 6\nvalue = [[6, 0]\n[6, 0]\n[6, 0]\n[6, 0]\n[6, 0]\n[6, 0]\n[6, 0]\n[6, 0]\n[6, 0]\n[6, 0]\n[6, 0]\n[0, 6]]"] ;
226 -> 227 ;
228 [label="gini = 0.0\nsamples = 2\nvalue = [[2, 0]\n[2, 0]\n[2, 0]\n[2, 0]\n[2, 0]\n[2, 0]\n[2, 0]\n[2, 0]\n[2, 0]\n[2, 0]\n[0, 2]\n[2, 0]]"] ;
226 -> 228 ;
229 [label="X[4] <= -1.206\ngini = 0.006\nsamples = 224\nvalue = [[224, 0]\n[224, 0]\n[224, 0]\n[224, 0]\n[224, 0]\n[224, 0]\n[224, 0]\n[224, 0]\n[224, 0]\n[224, 0]\n[220, 4]\n[4, 220]]"] ;
225 -> 229 ;
230 [label="X[7] <= -0.879\ngini = 0.003\nsamples = 208\nvalue = [[208, 0]\n[208, 0]\n[208, 0]\n[208, 0]\n[208, 0]\n[208, 0]\n[208, 0]\n[208, 0]\n[208, 0]\n[208, 0]\n[206, 2]\n[2, 206]]"] ;
229 -> 230 ;
231 [label="X[5] <= -1.616\ngini = 0.002\nsamples = 193\nvalue = [[193, 0]\n[193, 0]\n[193, 0]\n[193, 0]\n[193, 0]\n[193, 0]\n[193, 0]\n[193, 0]\n[193, 0]\n[193, 0]\n[192, 1]\n[1, 192]]"] ;
230 -> 231 ;
232 [label="X[7] <= -1.033\ngini = 0.011\nsamples = 29\nvalue = [[29, 0]\n[29, 0]\n[29, 0]\n[29, 0]\n[29, 0]\n[29, 0]\n[29, 0]\n[29, 0]\n[29, 0]\n[29, 0]\n[28, 1]\n[1, 28]]"] ;
231 -> 232 ;
233 [label="gini = 0.0\nsamples = 28\nvalue = [[28, 0]\n[28, 0]\n[28, 0]\n[28, 0]\n[28, 0]\n[28, 0]\n[28, 0]\n[28, 0]\n[28, 0]\n[28, 0]\n[28, 0]\n[0, 28]]"] ;
232 -> 233 ;
234 [label="gini = 0.0\nsamples = 1\nvalue = [[1, 0]\n[1, 0]\n[1, 0]\n[1, 0]\n[1, 0]\n[1, 0]\n[1, 0]\n[1, 0]\n[1, 0]\n[1, 0]\n[0, 1]\n[1, 0]]"] ;
232 -> 234 ;
235 [label="gini = 0.0\nsamples = 164\nvalue = [[164, 0]\n[164, 0]\n[164, 0]\n[164, 0]\n[164, 0]\n[164, 0]\n[164, 0]\n[164, 0]\n[164, 0]\n[164, 0]\n[164, 0]\n[0, 164]]"] ;
231 -> 235 ;
236 [label="X[6] <= -0.903\ngini = 0.021\nsamples = 15\nvalue = [[15, 0]\n[15, 0]\n[15, 0]\n[15, 0]\n[15, 0]\n[15, 0]\n[15, 0]\n[15, 0]\n[15, 0]\n[15, 0]\n[14, 1]\n[1, 14]]"] ;
230 -> 236 ;
237 [label="gini = 0.0\nsamples = 1\nvalue = [[1, 0]\n[1, 0]\n[1, 0]\n[1, 0]\n[1, 0]\n[1, 0]\n[1, 0]\n[1, 0]\n[1, 0]\n[1, 0]\n[0, 1]\n[1, 0]]"] ;
236 -> 237 ;
238 [label="gini = 0.0\nsamples = 14\nvalue = [[14, 0]\n[14, 0]\n[14, 0]\n[14, 0]\n[14, 0]\n[14, 0]\n[14, 0]\n[14, 0]\n[14, 0]\n[14, 0]\n[14, 0]\n[0, 14]]"] ;
236 -> 238 ;
239 [label="X[9] <= -1.515\ngini = 0.036\nsamples = 16\nvalue = [[16, 0]\n[16, 0]\n[16, 0]\n[16, 0]\n[16, 0]\n[16, 0]\n[16, 0]\n[16, 0]\n[16, 0]\n[16, 0]\n[14, 2]\n[2, 14]]"] ;
229 -> 239 ;
240 [label="gini = 0.0\nsamples = 1\nvalue = [[1, 0]\n[1, 0]\n[1, 0]\n[1, 0]\n[1, 0]\n[1, 0]\n[1, 0]\n[1, 0]\n[1, 0]\n[1, 0]\n[0, 1]\n[1, 0]]"] ;
239 -> 240 ;
241 [label="X[1] <= 0.32\ngini = 0.021\nsamples = 15\nvalue = [[15, 0]\n[15, 0]\n[15, 0]\n[15, 0]\n[15, 0]\n[15, 0]\n[15, 0]\n[15, 0]\n[15, 0]\n[15, 0]\n[14, 1]\n[1, 14]]"] ;
239 -> 241 ;
242 [label="gini = 0.0\nsamples = 13\nvalue = [[13, 0]\n[13, 0]\n[13, 0]\n[13, 0]\n[13, 0]\n[13, 0]\n[13, 0]\n[13, 0]\n[13, 0]\n[13, 0]\n[13, 0]\n[0, 13]]"] ;
241 -> 242 ;
243 [label="X[7] <= -1.221\ngini = 0.083\nsamples = 2\nvalue = [[2, 0]\n[2, 0]\n[2, 0]\n[2, 0]\n[2, 0]\n[2, 0]\n[2, 0]\n[2, 0]\n[2, 0]\n[2, 0]\n[1, 1]\n[1, 1]]"] ;
241 -> 243 ;
244 [label="gini = 0.0\nsamples = 1\nvalue = [[1, 0]\n[1, 0]\n[1, 0]\n[1, 0]\n[1, 0]\n[1, 0]\n[1, 0]\n[1, 0]\n[1, 0]\n[1, 0]\n[1, 0]\n[0, 1]]"] ;
243 -> 244 ;
245 [label="gini = 0.0\nsamples = 1\nvalue = [[1, 0]\n[1, 0]\n[1, 0]\n[1, 0]\n[1, 0]\n[1, 0]\n[1, 0]\n[1, 0]\n[1, 0]\n[1, 0]\n[0, 1]\n[1, 0]]"] ;
243 -> 245 ;
246 [label="X[6] <= -0.534\ngini = 0.048\nsamples = 23\nvalue = [[23, 0]\n[23, 0]\n[23, 0]\n[23, 0]\n[23, 0]\n[23, 0]\n[23, 0]\n[23, 0]\n[23, 0]\n[23, 0]\n[19, 4]\n[4, 19]]"] ;
224 -> 246 ;
247 [label="X[6] <= -0.939\ngini = 0.016\nsamples = 20\nvalue = [[20, 0]\n[20, 0]\n[20, 0]\n[20, 0]\n[20, 0]\n[20, 0]\n[20, 0]\n[20, 0]\n[20, 0]\n[20, 0]\n[19, 1]\n[1, 19]]"] ;
246 -> 247 ;
248 [label="gini = 0.0\nsamples = 1\nvalue = [[1, 0]\n[1, 0]\n[1, 0]\n[1, 0]\n[1, 0]\n[1, 0]\n[1, 0]\n[1, 0]\n[1, 0]\n[1, 0]\n[0, 1]\n[1, 0]]"] ;
247 -> 248 ;
249 [label="gini = 0.0\nsamples = 19\nvalue = [[19, 0]\n[19, 0]\n[19, 0]\n[19, 0]\n[19, 0]\n[19, 0]\n[19, 0]\n[19, 0]\n[19, 0]\n[19, 0]\n[19, 0]\n[0, 19]]"] ;
247 -> 249 ;
250 [label="gini = 0.0\nsamples = 3\nvalue = [[3, 0]\n[3, 0]\n[3, 0]\n[3, 0]\n[3, 0]\n[3, 0]\n[3, 0]\n[3, 0]\n[3, 0]\n[3, 0]\n[0, 3]\n[3, 0]]"] ;
246 -> 250 ;
251 [label="gini = 0.0\nsamples = 1\nvalue = [[1, 0]\n[1, 0]\n[1, 0]\n[1, 0]\n[1, 0]\n[1, 0]\n[1, 0]\n[1, 0]\n[1, 0]\n[1, 0]\n[0, 1]\n[1, 0]]"] ;
223 -> 251 ;
252 [label="X[5] <= -1.136\ngini = 0.072\nsamples = 138\nvalue = [[138, 0]\n[138, 0]\n[138, 0]\n[138, 0]\n[138, 0]\n[138, 0]\n[138, 0]\n[138, 0]\n[137, 1]\n[138, 0]\n[96, 42]\n[43, 95]]"] ;
182 -> 252 ;
253 [label="X[6] <= -0.869\ngini = 0.077\nsamples = 47\nvalue = [[47, 0]\n[47, 0]\n[47, 0]\n[47, 0]\n[47, 0]\n[47, 0]\n[47, 0]\n[47, 0]\n[47, 0]\n[47, 0]\n[17, 30]\n[30, 17]]"] ;
252 -> 253 ;
254 [label="X[9] <= -0.889\ngini = 0.048\nsamples = 23\nvalue = [[23, 0]\n[23, 0]\n[23, 0]\n[23, 0]\n[23, 0]\n[23, 0]\n[23, 0]\n[23, 0]\n[23, 0]\n[23, 0]\n[4, 19]\n[19, 4]]"] ;
253 -> 254 ;
255 [label="X[8] <= -1.296\ngini = 0.018\nsamples = 17\nvalue = [[17, 0]\n[17, 0]\n[17, 0]\n[17, 0]\n[17, 0]\n[17, 0]\n[17, 0]\n[17, 0]\n[17, 0]\n[17, 0]\n[1, 16]\n[16, 1]]"] ;
254 -> 255 ;
256 [label="gini = 0.0\nsamples = 14\nvalue = [[14, 0]\n[14, 0]\n[14, 0]\n[14, 0]\n[14, 0]\n[14, 0]\n[14, 0]\n[14, 0]\n[14, 0]\n[14, 0]\n[0, 14]\n[14, 0]]"] ;
255 -> 256 ;
257 [label="X[5] <= -1.216\ngini = 0.074\nsamples = 3\nvalue = [[3, 0]\n[3, 0]\n[3, 0]\n[3, 0]\n[3, 0]\n[3, 0]\n[3, 0]\n[3, 0]\n[3, 0]\n[3, 0]\n[1, 2]\n[2, 1]]"] ;
255 -> 257 ;
258 [label="gini = 0.0\nsamples = 2\nvalue = [[2, 0]\n[2, 0]\n[2, 0]\n[2, 0]\n[2, 0]\n[2, 0]\n[2, 0]\n[2, 0]\n[2, 0]\n[2, 0]\n[0, 2]\n[2, 0]]"] ;
257 -> 258 ;
259 [label="gini = 0.0\nsamples = 1\nvalue = [[1, 0]\n[1, 0]\n[1, 0]\n[1, 0]\n[1, 0]\n[1, 0]\n[1, 0]\n[1, 0]\n[1, 0]\n[1, 0]\n[1, 0]\n[0, 1]]"] ;
257 -> 259 ;
260 [label="X[5] <= -1.376\ngini = 0.083\nsamples = 6\nvalue = [[6, 0]\n[6, 0]\n[6, 0]\n[6, 0]\n[6, 0]\n[6, 0]\n[6, 0]\n[6, 0]\n[6, 0]\n[6, 0]\n[3, 3]\n[3, 3]]"] ;
254 -> 260 ;
261 [label="gini = 0.0\nsamples = 2\nvalue = [[2, 0]\n[2, 0]\n[2, 0]\n[2, 0]\n[2, 0]\n[2, 0]\n[2, 0]\n[2, 0]\n[2, 0]\n[2, 0]\n[2, 0]\n[0, 2]]"] ;
260 -> 261 ;
262 [label="X[8] <= -1.407\ngini = 0.062\nsamples = 4\nvalue = [[4, 0]\n[4, 0]\n[4, 0]\n[4, 0]\n[4, 0]\n[4, 0]\n[4, 0]\n[4, 0]\n[4, 0]\n[4, 0]\n[1, 3]\n[3, 1]]"] ;
260 -> 262 ;
263 [label="gini = 0.0\nsamples = 1\nvalue = [[1, 0]\n[1, 0]\n[1, 0]\n[1, 0]\n[1, 0]\n[1, 0]\n[1, 0]\n[1, 0]\n[1, 0]\n[1, 0]\n[1, 0]\n[0, 1]]"] ;
262 -> 263 ;
264 [label="gini = 0.0\nsamples = 3\nvalue = [[3, 0]\n[3, 0]\n[3, 0]\n[3, 0]\n[3, 0]\n[3, 0]\n[3, 0]\n[3, 0]\n[3, 0]\n[3, 0]\n[0, 3]\n[3, 0]]"] ;
262 -> 264 ;
265 [label="X[7] <= -0.762\ngini = 0.083\nsamples = 24\nvalue = [[24, 0]\n[24, 0]\n[24, 0]\n[24, 0]\n[24, 0]\n[24, 0]\n[24, 0]\n[24, 0]\n[24, 0]\n[24, 0]\n[13, 11]\n[11, 13]]"] ;
253 -> 265 ;
266 [label="X[0] <= -0.941\ngini = 0.033\nsamples = 9\nvalue = [[9, 0]\n[9, 0]\n[9, 0]\n[9, 0]\n[9, 0]\n[9, 0]\n[9, 0]\n[9, 0]\n[9, 0]\n[9, 0]\n[8, 1]\n[1, 8]]"] ;
265 -> 266 ;
267 [label="gini = 0.0\nsamples = 7\nvalue = [[7, 0]\n[7, 0]\n[7, 0]\n[7, 0]\n[7, 0]\n[7, 0]\n[7, 0]\n[7, 0]\n[7, 0]\n[7, 0]\n[7, 0]\n[0, 7]]"] ;
266 -> 267 ;
268 [label="X[5] <= -1.296\ngini = 0.083\nsamples = 2\nvalue = [[2, 0]\n[2, 0]\n[2, 0]\n[2, 0]\n[2, 0]\n[2, 0]\n[2, 0]\n[2, 0]\n[2, 0]\n[2, 0]\n[1, 1]\n[1, 1]]"] ;
266 -> 268 ;
269 [label="gini = 0.0\nsamples = 1\nvalue = [[1, 0]\n[1, 0]\n[1, 0]\n[1, 0]\n[1, 0]\n[1, 0]\n[1, 0]\n[1, 0]\n[1, 0]\n[1, 0]\n[0, 1]\n[1, 0]]"] ;
268 -> 269 ;
270 [label="gini = 0.0\nsamples = 1\nvalue = [[1, 0]\n[1, 0]\n[1, 0]\n[1, 0]\n[1, 0]\n[1, 0]\n[1, 0]\n[1, 0]\n[1, 0]\n[1, 0]\n[1, 0]\n[0, 1]]"] ;
268 -> 270 ;
271 [label="X[8] <= -1.507\ngini = 0.074\nsamples = 15\nvalue = [[15, 0]\n[15, 0]\n[15, 0]\n[15, 0]\n[15, 0]\n[15, 0]\n[15, 0]\n[15, 0]\n[15, 0]\n[15, 0]\n[5, 10]\n[10, 5]]"] ;
265 -> 271 ;
272 [label="gini = 0.0\nsamples = 2\nvalue = [[2, 0]\n[2, 0]\n[2, 0]\n[2, 0]\n[2, 0]\n[2, 0]\n[2, 0]\n[2, 0]\n[2, 0]\n[2, 0]\n[2, 0]\n[0, 2]]"] ;
271 -> 272 ;
273 [label="X[6] <= -0.788\ngini = 0.059\nsamples = 13\nvalue = [[13, 0]\n[13, 0]\n[13, 0]\n[13, 0]\n[13, 0]\n[13, 0]\n[13, 0]\n[13, 0]\n[13, 0]\n[13, 0]\n[3, 10]\n[10, 3]]"] ;
271 -> 273 ;
274 [label="gini = 0.0\nsamples = 2\nvalue = [[2, 0]\n[2, 0]\n[2, 0]\n[2, 0]\n[2, 0]\n[2, 0]\n[2, 0]\n[2, 0]\n[2, 0]\n[2, 0]\n[2, 0]\n[0, 2]]"] ;
273 -> 274 ;
275 [label="X[7] <= -0.373\ngini = 0.028\nsamples = 11\nvalue = [[11, 0]\n[11, 0]\n[11, 0]\n[11, 0]\n[11, 0]\n[11, 0]\n[11, 0]\n[11, 0]\n[11, 0]\n[11, 0]\n[1, 10]\n[10, 1]]"] ;
273 -> 275 ;
276 [label="gini = 0.0\nsamples = 10\nvalue = [[10, 0]\n[10, 0]\n[10, 0]\n[10, 0]\n[10, 0]\n[10, 0]\n[10, 0]\n[10, 0]\n[10, 0]\n[10, 0]\n[0, 10]\n[10, 0]]"] ;
275 -> 276 ;
277 [label="gini = 0.0\nsamples = 1\nvalue = [[1, 0]\n[1, 0]\n[1, 0]\n[1, 0]\n[1, 0]\n[1, 0]\n[1, 0]\n[1, 0]\n[1, 0]\n[1, 0]\n[1, 0]\n[0, 1]]"] ;
275 -> 277 ;
278 [label="X[7] <= -0.184\ngini = 0.041\nsamples = 91\nvalue = [[91, 0]\n[91, 0]\n[91, 0]\n[91, 0]\n[91, 0]\n[91, 0]\n[91, 0]\n[91, 0]\n[90, 1]\n[91, 0]\n[79, 12]\n[13, 78]]"] ;
252 -> 278 ;
279 [label="X[6] <= -0.257\ngini = 0.031\nsamples = 87\nvalue = [[87, 0]\n[87, 0]\n[87, 0]\n[87, 0]\n[87, 0]\n[87, 0]\n[87, 0]\n[87, 0]\n[87, 0]\n[87, 0]\n[78, 9]\n[9, 78]]"] ;
278 -> 279 ;
280 [label="X[1] <= 1.86\ngini = 0.019\nsamples = 81\nvalue = [[81, 0]\n[81, 0]\n[81, 0]\n[81, 0]\n[81, 0]\n[81, 0]\n[81, 0]\n[81, 0]\n[81, 0]\n[81, 0]\n[76, 5]\n[5, 76]]"] ;
279 -> 280 ;
281 [label="X[0] <= -1.04\ngini = 0.016\nsamples = 80\nvalue = [[80, 0]\n[80, 0]\n[80, 0]\n[80, 0]\n[80, 0]\n[80, 0]\n[80, 0]\n[80, 0]\n[80, 0]\n[80, 0]\n[76, 4]\n[4, 76]]"] ;
280 -> 281 ;
282 [label="X[4] <= -1.287\ngini = 0.056\nsamples = 14\nvalue = [[14, 0]\n[14, 0]\n[14, 0]\n[14, 0]\n[14, 0]\n[14, 0]\n[14, 0]\n[14, 0]\n[14, 0]\n[14, 0]\n[11, 3]\n[3, 11]]"] ;
281 -> 282 ;
283 [label="gini = 0.0\nsamples = 11\nvalue = [[11, 0]\n[11, 0]\n[11, 0]\n[11, 0]\n[11, 0]\n[11, 0]\n[11, 0]\n[11, 0]\n[11, 0]\n[11, 0]\n[11, 0]\n[0, 11]]"] ;
282 -> 283 ;
284 [label="gini = 0.0\nsamples = 3\nvalue = [[3, 0]\n[3, 0]\n[3, 0]\n[3, 0]\n[3, 0]\n[3, 0]\n[3, 0]\n[3, 0]\n[3, 0]\n[3, 0]\n[0, 3]\n[3, 0]]"] ;
282 -> 284 ;
285 [label="X[9] <= -0.931\ngini = 0.005\nsamples = 66\nvalue = [[66, 0]\n[66, 0]\n[66, 0]\n[66, 0]\n[66, 0]\n[66, 0]\n[66, 0]\n[66, 0]\n[66, 0]\n[66, 0]\n[65, 1]\n[1, 65]]"] ;
281 -> 285 ;
286 [label="X[9] <= -0.959\ngini = 0.03\nsamples = 10\nvalue = [[10, 0]\n[10, 0]\n[10, 0]\n[10, 0]\n[10, 0]\n[10, 0]\n[10, 0]\n[10, 0]\n[10, 0]\n[10, 0]\n[9, 1]\n[1, 9]]"] ;
285 -> 286 ;
287 [label="gini = 0.0\nsamples = 9\nvalue = [[9, 0]\n[9, 0]\n[9, 0]\n[9, 0]\n[9, 0]\n[9, 0]\n[9, 0]\n[9, 0]\n[9, 0]\n[9, 0]\n[9, 0]\n[0, 9]]"] ;
286 -> 287 ;
288 [label="gini = 0.0\nsamples = 1\nvalue = [[1, 0]\n[1, 0]\n[1, 0]\n[1, 0]\n[1, 0]\n[1, 0]\n[1, 0]\n[1, 0]\n[1, 0]\n[1, 0]\n[0, 1]\n[1, 0]]"] ;
286 -> 288 ;
289 [label="gini = 0.0\nsamples = 56\nvalue = [[56, 0]\n[56, 0]\n[56, 0]\n[56, 0]\n[56, 0]\n[56, 0]\n[56, 0]\n[56, 0]\n[56, 0]\n[56, 0]\n[56, 0]\n[0, 56]]"] ;
285 -> 289 ;
290 [label="gini = 0.0\nsamples = 1\nvalue = [[1, 0]\n[1, 0]\n[1, 0]\n[1, 0]\n[1, 0]\n[1, 0]\n[1, 0]\n[1, 0]\n[1, 0]\n[1, 0]\n[0, 1]\n[1, 0]]"] ;
280 -> 290 ;
291 [label="X[6] <= 0.173\ngini = 0.074\nsamples = 6\nvalue = [[6, 0]\n[6, 0]\n[6, 0]\n[6, 0]\n[6, 0]\n[6, 0]\n[6, 0]\n[6, 0]\n[6, 0]\n[6, 0]\n[2, 4]\n[4, 2]]"] ;
279 -> 291 ;
292 [label="gini = 0.0\nsamples = 4\nvalue = [[4, 0]\n[4, 0]\n[4, 0]\n[4, 0]\n[4, 0]\n[4, 0]\n[4, 0]\n[4, 0]\n[4, 0]\n[4, 0]\n[0, 4]\n[4, 0]]"] ;
291 -> 292 ;
293 [label="gini = 0.0\nsamples = 2\nvalue = [[2, 0]\n[2, 0]\n[2, 0]\n[2, 0]\n[2, 0]\n[2, 0]\n[2, 0]\n[2, 0]\n[2, 0]\n[2, 0]\n[2, 0]\n[0, 2]]"] ;
291 -> 293 ;
294 [label="X[4] <= -1.193\ngini = 0.062\nsamples = 4\nvalue = [[4, 0]\n[4, 0]\n[4, 0]\n[4, 0]\n[4, 0]\n[4, 0]\n[4, 0]\n[4, 0]\n[3, 1]\n[4, 0]\n[1, 3]\n[4, 0]]"] ;
278 -> 294 ;
295 [label="gini = 0.0\nsamples = 3\nvalue = [[3, 0]\n[3, 0]\n[3, 0]\n[3, 0]\n[3, 0]\n[3, 0]\n[3, 0]\n[3, 0]\n[3, 0]\n[3, 0]\n[0, 3]\n[3, 0]]"] ;
294 -> 295 ;
296 [label="gini = 0.0\nsamples = 1\nvalue = [[1, 0]\n[1, 0]\n[1, 0]\n[1, 0]\n[1, 0]\n[1, 0]\n[1, 0]\n[1, 0]\n[0, 1]\n[1, 0]\n[1, 0]\n[1, 0]]"] ;
294 -> 296 ;
297 [label="X[1] <= -1.137\ngini = 0.127\nsamples = 27\nvalue = [[27, 0]\n[27, 0]\n[27, 0]\n[25, 2]\n[27, 0]\n[20, 7]\n[24, 3]\n[27, 0]\n[24, 3]\n[26, 1]\n[17, 10]\n[26, 1]]"] ;
181 -> 297 ;
298 [label="X[6] <= -0.718\ngini = 0.028\nsamples = 11\nvalue = [[11, 0]\n[11, 0]\n[11, 0]\n[11, 0]\n[11, 0]\n[11, 0]\n[11, 0]\n[11, 0]\n[11, 0]\n[11, 0]\n[1, 10]\n[10, 1]]"] ;
297 -> 298 ;
299 [label="gini = 0.0\nsamples = 10\nvalue = [[10, 0]\n[10, 0]\n[10, 0]\n[10, 0]\n[10, 0]\n[10, 0]\n[10, 0]\n[10, 0]\n[10, 0]\n[10, 0]\n[0, 10]\n[10, 0]]"] ;
298 -> 299 ;
300 [label="gini = 0.0\nsamples = 1\nvalue = [[1, 0]\n[1, 0]\n[1, 0]\n[1, 0]\n[1, 0]\n[1, 0]\n[1, 0]\n[1, 0]\n[1, 0]\n[1, 0]\n[1, 0]\n[0, 1]]"] ;
298 -> 300 ;
301 [label="X[9] <= 4.537\ngini = 0.12\nsamples = 16\nvalue = [[16, 0]\n[16, 0]\n[16, 0]\n[14, 2]\n[16, 0]\n[9, 7]\n[13, 3]\n[16, 0]\n[13, 3]\n[15, 1]\n[16, 0]\n[16, 0]]"] ;
297 -> 301 ;
302 [label="X[8] <= -0.378\ngini = 0.105\nsamples = 13\nvalue = [[13, 0]\n[13, 0]\n[13, 0]\n[11, 2]\n[13, 0]\n[6, 7]\n[13, 0]\n[13, 0]\n[10, 3]\n[12, 1]\n[13, 0]\n[13, 0]]"] ;
301 -> 302 ;
303 [label="X[6] <= -0.551\ngini = 0.062\nsamples = 4\nvalue = [[4, 0]\n[4, 0]\n[4, 0]\n[4, 0]\n[4, 0]\n[4, 0]\n[4, 0]\n[4, 0]\n[1, 3]\n[3, 1]\n[4, 0]\n[4, 0]]"] ;
302 -> 303 ;
304 [label="gini = 0.0\nsamples = 1\nvalue = [[1, 0]\n[1, 0]\n[1, 0]\n[1, 0]\n[1, 0]\n[1, 0]\n[1, 0]\n[1, 0]\n[1, 0]\n[0, 1]\n[1, 0]\n[1, 0]]"] ;
303 -> 304 ;
305 [label="gini = 0.0\nsamples = 3\nvalue = [[3, 0]\n[3, 0]\n[3, 0]\n[3, 0]\n[3, 0]\n[3, 0]\n[3, 0]\n[3, 0]\n[0, 3]\n[3, 0]\n[3, 0]\n[3, 0]]"] ;
303 -> 305 ;
306 [label="X[4] <= 1.103\ngini = 0.058\nsamples = 9\nvalue = [[9, 0]\n[9, 0]\n[9, 0]\n[7, 2]\n[9, 0]\n[2, 7]\n[9, 0]\n[9, 0]\n[9, 0]\n[9, 0]\n[9, 0]\n[9, 0]]"] ;
302 -> 306 ;
307 [label="gini = 0.0\nsamples = 7\nvalue = [[7, 0]\n[7, 0]\n[7, 0]\n[7, 0]\n[7, 0]\n[0, 7]\n[7, 0]\n[7, 0]\n[7, 0]\n[7, 0]\n[7, 0]\n[7, 0]]"] ;
306 -> 307 ;
308 [label="gini = 0.0\nsamples = 2\nvalue = [[2, 0]\n[2, 0]\n[2, 0]\n[0, 2]\n[2, 0]\n[2, 0]\n[2, 0]\n[2, 0]\n[2, 0]\n[2, 0]\n[2, 0]\n[2, 0]]"] ;
306 -> 308 ;
309 [label="gini = 0.0\nsamples = 3\nvalue = [[3, 0]\n[3, 0]\n[3, 0]\n[3, 0]\n[3, 0]\n[3, 0]\n[0, 3]\n[3, 0]\n[3, 0]\n[3, 0]\n[3, 0]\n[3, 0]]"] ;
301 -> 309 ;
310 [label="X[3] <= -0.259\ngini = 0.15\nsamples = 50162\nvalue = [[47012, 3150]\n[44099, 6063]\n[47000, 3162]\n[44050, 6112]\n[46960, 3202]\n[44010, 6152]\n[46829, 3333]\n[44042, 6120]\n[46726, 3436]\n[44075, 6087]\n[47284, 2878]\n[49695, 467]]"] ;
0 -> 310 [labeldistance=2.5, labelangle=-45, headlabel="False"] ;
311 [label="X[8] <= -0.7\ngini = 0.129\nsamples = 20459\nvalue = [[20459, 0]\n[20458, 1]\n[20459, 0]\n[20455, 4]\n[20459, 0]\n[20400, 59]\n[18819, 1640]\n[14570, 5889]\n[17024, 3435]\n[14373, 6086]\n[17581, 2878]\n[19992, 467]]"] ;
310 -> 311 ;
312 [label="X[1] <= -0.598\ngini = 0.108\nsamples = 11929\nvalue = [[11929, 0]\n[11929, 0]\n[11929, 0]\n[11929, 0]\n[11929, 0]\n[11928, 1]\n[11929, 0]\n[11691, 238]\n[9542, 2387]\n[5963, 5966]\n[9053, 2876]\n[11468, 461]]"] ;
311 -> 312 ;
313 [label="X[0] <= -1.06\ngini = 0.04\nsamples = 3203\nvalue = [[3203, 0]\n[3203, 0]\n[3203, 0]\n[3203, 0]\n[3203, 0]\n[3203, 0]\n[3203, 0]\n[3203, 0]\n[3202, 1]\n[3200, 3]\n[446, 2757]\n[2761, 442]]"] ;
312 -> 313 ;
314 [label="X[7] <= -0.255\ngini = 0.01\nsamples = 65\nvalue = [[65, 0]\n[65, 0]\n[65, 0]\n[65, 0]\n[65, 0]\n[65, 0]\n[65, 0]\n[65, 0]\n[65, 0]\n[63, 2]\n[65, 0]\n[2, 63]]"] ;
313 -> 314 ;
315 [label="gini = 0.0\nsamples = 63\nvalue = [[63, 0]\n[63, 0]\n[63, 0]\n[63, 0]\n[63, 0]\n[63, 0]\n[63, 0]\n[63, 0]\n[63, 0]\n[63, 0]\n[63, 0]\n[0, 63]]"] ;
314 -> 315 ;
316 [label="gini = 0.0\nsamples = 2\nvalue = [[2, 0]\n[2, 0]\n[2, 0]\n[2, 0]\n[2, 0]\n[2, 0]\n[2, 0]\n[2, 0]\n[2, 0]\n[0, 2]\n[2, 0]\n[2, 0]]"] ;
314 -> 316 ;
317 [label="X[0] <= -0.901\ngini = 0.036\nsamples = 3138\nvalue = [[3138, 0]\n[3138, 0]\n[3138, 0]\n[3138, 0]\n[3138, 0]\n[3138, 0]\n[3138, 0]\n[3138, 0]\n[3137, 1]\n[3137, 1]\n[381, 2757]\n[2759, 379]]"] ;
313 -> 317 ;
318 [label="X[4] <= -1.342\ngini = 0.033\nsamples = 3105\nvalue = [[3105, 0]\n[3105, 0]\n[3105, 0]\n[3105, 0]\n[3105, 0]\n[3105, 0]\n[3105, 0]\n[3105, 0]\n[3104, 1]\n[3104, 1]\n[348, 2757]\n[2759, 346]]"] ;
317 -> 318 ;
319 [label="X[7] <= -0.526\ngini = 0.057\nsamples = 1140\nvalue = [[1140, 0]\n[1140, 0]\n[1140, 0]\n[1140, 0]\n[1140, 0]\n[1140, 0]\n[1140, 0]\n[1140, 0]\n[1140, 0]\n[1139, 1]\n[249, 891]\n[892, 248]]"] ;
318 -> 319 ;
320 [label="X[5] <= -0.976\ngini = 0.072\nsamples = 646\nvalue = [[646, 0]\n[646, 0]\n[646, 0]\n[646, 0]\n[646, 0]\n[646, 0]\n[646, 0]\n[646, 0]\n[646, 0]\n[646, 0]\n[205, 441]\n[441, 205]]"] ;
319 -> 320 ;
321 [label="X[7] <= -0.832\ngini = 0.05\nsamples = 451\nvalue = [[451, 0]\n[451, 0]\n[451, 0]\n[451, 0]\n[451, 0]\n[451, 0]\n[451, 0]\n[451, 0]\n[451, 0]\n[451, 0]\n[82, 369]\n[369, 82]]"] ;
320 -> 321 ;
322 [label="X[6] <= -1.035\ngini = 0.07\nsamples = 225\nvalue = [[225, 0]\n[225, 0]\n[225, 0]\n[225, 0]\n[225, 0]\n[225, 0]\n[225, 0]\n[225, 0]\n[225, 0]\n[225, 0]\n[68, 157]\n[157, 68]]"] ;
321 -> 322 ;
323 [label="X[9] <= -2.308\ngini = 0.033\nsamples = 150\nvalue = [[150, 0]\n[150, 0]\n[150, 0]\n[150, 0]\n[150, 0]\n[150, 0]\n[150, 0]\n[150, 0]\n[150, 0]\n[150, 0]\n[17, 133]\n[133, 17]]"] ;
322 -> 323 ;
324 [label="X[0] <= -1.021\ngini = 0.082\nsamples = 7\nvalue = [[7, 0]\n[7, 0]\n[7, 0]\n[7, 0]\n[7, 0]\n[7, 0]\n[7, 0]\n[7, 0]\n[7, 0]\n[7, 0]\n[4, 3]\n[3, 4]]"] ;
323 -> 324 ;
325 [label="gini = 0.0\nsamples = 3\nvalue = [[3, 0]\n[3, 0]\n[3, 0]\n[3, 0]\n[3, 0]\n[3, 0]\n[3, 0]\n[3, 0]\n[3, 0]\n[3, 0]\n[0, 3]\n[3, 0]]"] ;
324 -> 325 ;
326 [label="gini = 0.0\nsamples = 4\nvalue = [[4, 0]\n[4, 0]\n[4, 0]\n[4, 0]\n[4, 0]\n[4, 0]\n[4, 0]\n[4, 0]\n[4, 0]\n[4, 0]\n[4, 0]\n[0, 4]]"] ;
324 -> 326 ;
327 [label="X[8] <= -1.484\ngini = 0.028\nsamples = 143\nvalue = [[143, 0]\n[143, 0]\n[143, 0]\n[143, 0]\n[143, 0]\n[143, 0]\n[143, 0]\n[143, 0]\n[143, 0]\n[143, 0]\n[13, 130]\n[130, 13]]"] ;
323 -> 327 ;
328 [label="X[5] <= -1.616\ngini = 0.066\nsamples = 37\nvalue = [[37, 0]\n[37, 0]\n[37, 0]\n[37, 0]\n[37, 0]\n[37, 0]\n[37, 0]\n[37, 0]\n[37, 0]\n[37, 0]\n[10, 27]\n[27, 10]]"] ;
327 -> 328 ;
329 [label="gini = 0.0\nsamples = 13\nvalue = [[13, 0]\n[13, 0]\n[13, 0]\n[13, 0]\n[13, 0]\n[13, 0]\n[13, 0]\n[13, 0]\n[13, 0]\n[13, 0]\n[0, 13]\n[13, 0]]"] ;
328 -> 329 ;
330 [label="X[4] <= -1.425\ngini = 0.081\nsamples = 24\nvalue = [[24, 0]\n[24, 0]\n[24, 0]\n[24, 0]\n[24, 0]\n[24, 0]\n[24, 0]\n[24, 0]\n[24, 0]\n[24, 0]\n[10, 14]\n[14, 10]]"] ;
328 -> 330 ;
331 [label="X[7] <= -1.092\ngini = 0.033\nsamples = 9\nvalue = [[9, 0]\n[9, 0]\n[9, 0]\n[9, 0]\n[9, 0]\n[9, 0]\n[9, 0]\n[9, 0]\n[9, 0]\n[9, 0]\n[1, 8]\n[8, 1]]"] ;
330 -> 331 ;
332 [label="gini = 0.0\nsamples = 1\nvalue = [[1, 0]\n[1, 0]\n[1, 0]\n[1, 0]\n[1, 0]\n[1, 0]\n[1, 0]\n[1, 0]\n[1, 0]\n[1, 0]\n[1, 0]\n[0, 1]]"] ;
331 -> 332 ;
333 [label="gini = 0.0\nsamples = 8\nvalue = [[8, 0]\n[8, 0]\n[8, 0]\n[8, 0]\n[8, 0]\n[8, 0]\n[8, 0]\n[8, 0]\n[8, 0]\n[8, 0]\n[0, 8]\n[8, 0]]"] ;
331 -> 333 ;
334 [label="X[4] <= -1.392\ngini = 0.08\nsamples = 15\nvalue = [[15, 0]\n[15, 0]\n[15, 0]\n[15, 0]\n[15, 0]\n[15, 0]\n[15, 0]\n[15, 0]\n[15, 0]\n[15, 0]\n[9, 6]\n[6, 9]]"] ;
330 -> 334 ;
335 [label="gini = 0.0\nsamples = 7\nvalue = [[7, 0]\n[7, 0]\n[7, 0]\n[7, 0]\n[7, 0]\n[7, 0]\n[7, 0]\n[7, 0]\n[7, 0]\n[7, 0]\n[7, 0]\n[0, 7]]"] ;
334 -> 335 ;
336 [label="X[6] <= -1.534\ngini = 0.062\nsamples = 8\nvalue = [[8, 0]\n[8, 0]\n[8, 0]\n[8, 0]\n[8, 0]\n[8, 0]\n[8, 0]\n[8, 0]\n[8, 0]\n[8, 0]\n[2, 6]\n[6, 2]]"] ;
334 -> 336 ;
337 [label="gini = 0.0\nsamples = 2\nvalue = [[2, 0]\n[2, 0]\n[2, 0]\n[2, 0]\n[2, 0]\n[2, 0]\n[2, 0]\n[2, 0]\n[2, 0]\n[2, 0]\n[2, 0]\n[0, 2]]"] ;
336 -> 337 ;
338 [label="gini = 0.0\nsamples = 6\nvalue = [[6, 0]\n[6, 0]\n[6, 0]\n[6, 0]\n[6, 0]\n[6, 0]\n[6, 0]\n[6, 0]\n[6, 0]\n[6, 0]\n[0, 6]\n[6, 0]]"] ;
336 -> 338 ;
339 [label="X[8] <= -1.275\ngini = 0.009\nsamples = 106\nvalue = [[106, 0]\n[106, 0]\n[106, 0]\n[106, 0]\n[106, 0]\n[106, 0]\n[106, 0]\n[106, 0]\n[106, 0]\n[106, 0]\n[3, 103]\n[103, 3]]"] ;
327 -> 339 ;
340 [label="X[5] <= -1.056\ngini = 0.006\nsamples = 104\nvalue = [[104, 0]\n[104, 0]\n[104, 0]\n[104, 0]\n[104, 0]\n[104, 0]\n[104, 0]\n[104, 0]\n[104, 0]\n[104, 0]\n[2, 102]\n[102, 2]]"] ;
339 -> 340 ;
341 [label="X[6] <= -1.638\ngini = 0.003\nsamples = 102\nvalue = [[102, 0]\n[102, 0]\n[102, 0]\n[102, 0]\n[102, 0]\n[102, 0]\n[102, 0]\n[102, 0]\n[102, 0]\n[102, 0]\n[1, 101]\n[101, 1]]"] ;
340 -> 341 ;
342 [label="X[4] <= -1.36\ngini = 0.053\nsamples = 5\nvalue = [[5, 0]\n[5, 0]\n[5, 0]\n[5, 0]\n[5, 0]\n[5, 0]\n[5, 0]\n[5, 0]\n[5, 0]\n[5, 0]\n[1, 4]\n[4, 1]]"] ;
341 -> 342 ;
343 [label="gini = 0.0\nsamples = 4\nvalue = [[4, 0]\n[4, 0]\n[4, 0]\n[4, 0]\n[4, 0]\n[4, 0]\n[4, 0]\n[4, 0]\n[4, 0]\n[4, 0]\n[0, 4]\n[4, 0]]"] ;
342 -> 343 ;
344 [label="gini = 0.0\nsamples = 1\nvalue = [[1, 0]\n[1, 0]\n[1, 0]\n[1, 0]\n[1, 0]\n[1, 0]\n[1, 0]\n[1, 0]\n[1, 0]\n[1, 0]\n[1, 0]\n[0, 1]]"] ;
342 -> 344 ;
345 [label="gini = 0.0\nsamples = 97\nvalue = [[97, 0]\n[97, 0]\n[97, 0]\n[97, 0]\n[97, 0]\n[97, 0]\n[97, 0]\n[97, 0]\n[97, 0]\n[97, 0]\n[0, 97]\n[97, 0]]"] ;
341 -> 345 ;
346 [label="X[6] <= -1.242\ngini = 0.083\nsamples = 2\nvalue = [[2, 0]\n[2, 0]\n[2, 0]\n[2, 0]\n[2, 0]\n[2, 0]\n[2, 0]\n[2, 0]\n[2, 0]\n[2, 0]\n[1, 1]\n[1, 1]]"] ;
340 -> 346 ;
347 [label="gini = 0.0\nsamples = 1\nvalue = [[1, 0]\n[1, 0]\n[1, 0]\n[1, 0]\n[1, 0]\n[1, 0]\n[1, 0]\n[1, 0]\n[1, 0]\n[1, 0]\n[0, 1]\n[1, 0]]"] ;
346 -> 347 ;
348 [label="gini = 0.0\nsamples = 1\nvalue = [[1, 0]\n[1, 0]\n[1, 0]\n[1, 0]\n[1, 0]\n[1, 0]\n[1, 0]\n[1, 0]\n[1, 0]\n[1, 0]\n[1, 0]\n[0, 1]]"] ;
346 -> 348 ;
349 [label="X[4] <= -1.408\ngini = 0.083\nsamples = 2\nvalue = [[2, 0]\n[2, 0]\n[2, 0]\n[2, 0]\n[2, 0]\n[2, 0]\n[2, 0]\n[2, 0]\n[2, 0]\n[2, 0]\n[1, 1]\n[1, 1]]"] ;
339 -> 349 ;
350 [label="gini = 0.0\nsamples = 1\nvalue = [[1, 0]\n[1, 0]\n[1, 0]\n[1, 0]\n[1, 0]\n[1, 0]\n[1, 0]\n[1, 0]\n[1, 0]\n[1, 0]\n[0, 1]\n[1, 0]]"] ;
349 -> 350 ;
351 [label="gini = 0.0\nsamples = 1\nvalue = [[1, 0]\n[1, 0]\n[1, 0]\n[1, 0]\n[1, 0]\n[1, 0]\n[1, 0]\n[1, 0]\n[1, 0]\n[1, 0]\n[1, 0]\n[0, 1]]"] ;
349 -> 351 ;
352 [label="X[5] <= -1.376\ngini = 0.073\nsamples = 75\nvalue = [[75, 0]\n[75, 0]\n[75, 0]\n[75, 0]\n[75, 0]\n[75, 0]\n[75, 0]\n[75, 0]\n[75, 0]\n[75, 0]\n[51, 24]\n[24, 51]]"] ;
322 -> 352 ;
353 [label="X[8] <= -1.447\ngini = 0.061\nsamples = 25\nvalue = [[25, 0]\n[25, 0]\n[25, 0]\n[25, 0]\n[25, 0]\n[25, 0]\n[25, 0]\n[25, 0]\n[25, 0]\n[25, 0]\n[6, 19]\n[19, 6]]"] ;
352 -> 353 ;
354 [label="X[9] <= -2.823\ngini = 0.046\nsamples = 6\nvalue = [[6, 0]\n[6, 0]\n[6, 0]\n[6, 0]\n[6, 0]\n[6, 0]\n[6, 0]\n[6, 0]\n[6, 0]\n[6, 0]\n[5, 1]\n[1, 5]]"] ;
353 -> 354 ;
355 [label="gini = 0.0\nsamples = 1\nvalue = [[1, 0]\n[1, 0]\n[1, 0]\n[1, 0]\n[1, 0]\n[1, 0]\n[1, 0]\n[1, 0]\n[1, 0]\n[1, 0]\n[0, 1]\n[1, 0]]"] ;
354 -> 355 ;
356 [label="gini = 0.0\nsamples = 5\nvalue = [[5, 0]\n[5, 0]\n[5, 0]\n[5, 0]\n[5, 0]\n[5, 0]\n[5, 0]\n[5, 0]\n[5, 0]\n[5, 0]\n[5, 0]\n[0, 5]]"] ;
354 -> 356 ;
357 [label="X[9] <= -1.766\ngini = 0.017\nsamples = 19\nvalue = [[19, 0]\n[19, 0]\n[19, 0]\n[19, 0]\n[19, 0]\n[19, 0]\n[19, 0]\n[19, 0]\n[19, 0]\n[19, 0]\n[1, 18]\n[18, 1]]"] ;
353 -> 357 ;
358 [label="gini = 0.0\nsamples = 1\nvalue = [[1, 0]\n[1, 0]\n[1, 0]\n[1, 0]\n[1, 0]\n[1, 0]\n[1, 0]\n[1, 0]\n[1, 0]\n[1, 0]\n[1, 0]\n[0, 1]]"] ;
357 -> 358 ;
359 [label="gini = 0.0\nsamples = 18\nvalue = [[18, 0]\n[18, 0]\n[18, 0]\n[18, 0]\n[18, 0]\n[18, 0]\n[18, 0]\n[18, 0]\n[18, 0]\n[18, 0]\n[0, 18]\n[18, 0]]"] ;
357 -> 359 ;
360 [label="X[8] <= -1.237\ngini = 0.03\nsamples = 50\nvalue = [[50, 0]\n[50, 0]\n[50, 0]\n[50, 0]\n[50, 0]\n[50, 0]\n[50, 0]\n[50, 0]\n[50, 0]\n[50, 0]\n[45, 5]\n[5, 45]]"] ;
352 -> 360 ;
361 [label="X[7] <= -0.927\ngini = 0.02\nsamples = 47\nvalue = [[47, 0]\n[47, 0]\n[47, 0]\n[47, 0]\n[47, 0]\n[47, 0]\n[47, 0]\n[47, 0]\n[47, 0]\n[47, 0]\n[44, 3]\n[3, 44]]"] ;
360 -> 361 ;
362 [label="gini = 0.0\nsamples = 30\nvalue = [[30, 0]\n[30, 0]\n[30, 0]\n[30, 0]\n[30, 0]\n[30, 0]\n[30, 0]\n[30, 0]\n[30, 0]\n[30, 0]\n[30, 0]\n[0, 30]]"] ;
361 -> 362 ;
363 [label="X[3] <= -1.193\ngini = 0.048\nsamples = 17\nvalue = [[17, 0]\n[17, 0]\n[17, 0]\n[17, 0]\n[17, 0]\n[17, 0]\n[17, 0]\n[17, 0]\n[17, 0]\n[17, 0]\n[14, 3]\n[3, 14]]"] ;
361 -> 363 ;
364 [label="gini = 0.0\nsamples = 1\nvalue = [[1, 0]\n[1, 0]\n[1, 0]\n[1, 0]\n[1, 0]\n[1, 0]\n[1, 0]\n[1, 0]\n[1, 0]\n[1, 0]\n[0, 1]\n[1, 0]]"] ;
363 -> 364 ;
365 [label="X[4] <= -1.356\ngini = 0.036\nsamples = 16\nvalue = [[16, 0]\n[16, 0]\n[16, 0]\n[16, 0]\n[16, 0]\n[16, 0]\n[16, 0]\n[16, 0]\n[16, 0]\n[16, 0]\n[14, 2]\n[2, 14]]"] ;
363 -> 365 ;
366 [label="X[6] <= -0.962\ngini = 0.022\nsamples = 14\nvalue = [[14, 0]\n[14, 0]\n[14, 0]\n[14, 0]\n[14, 0]\n[14, 0]\n[14, 0]\n[14, 0]\n[14, 0]\n[14, 0]\n[13, 1]\n[1, 13]]"] ;
365 -> 366 ;
367 [label="X[4] <= -1.432\ngini = 0.083\nsamples = 2\nvalue = [[2, 0]\n[2, 0]\n[2, 0]\n[2, 0]\n[2, 0]\n[2, 0]\n[2, 0]\n[2, 0]\n[2, 0]\n[2, 0]\n[1, 1]\n[1, 1]]"] ;
366 -> 367 ;
368 [label="gini = 0.0\nsamples = 1\nvalue = [[1, 0]\n[1, 0]\n[1, 0]\n[1, 0]\n[1, 0]\n[1, 0]\n[1, 0]\n[1, 0]\n[1, 0]\n[1, 0]\n[0, 1]\n[1, 0]]"] ;
367 -> 368 ;
369 [label="gini = 0.0\nsamples = 1\nvalue = [[1, 0]\n[1, 0]\n[1, 0]\n[1, 0]\n[1, 0]\n[1, 0]\n[1, 0]\n[1, 0]\n[1, 0]\n[1, 0]\n[1, 0]\n[0, 1]]"] ;
367 -> 369 ;
370 [label="gini = 0.0\nsamples = 12\nvalue = [[12, 0]\n[12, 0]\n[12, 0]\n[12, 0]\n[12, 0]\n[12, 0]\n[12, 0]\n[12, 0]\n[12, 0]\n[12, 0]\n[12, 0]\n[0, 12]]"] ;
366 -> 370 ;
371 [label="X[7] <= -0.903\ngini = 0.083\nsamples = 2\nvalue = [[2, 0]\n[2, 0]\n[2, 0]\n[2, 0]\n[2, 0]\n[2, 0]\n[2, 0]\n[2, 0]\n[2, 0]\n[2, 0]\n[1, 1]\n[1, 1]]"] ;
365 -> 371 ;
372 [label="gini = 0.0\nsamples = 1\nvalue = [[1, 0]\n[1, 0]\n[1, 0]\n[1, 0]\n[1, 0]\n[1, 0]\n[1, 0]\n[1, 0]\n[1, 0]\n[1, 0]\n[0, 1]\n[1, 0]]"] ;
371 -> 372 ;
373 [label="gini = 0.0\nsamples = 1\nvalue = [[1, 0]\n[1, 0]\n[1, 0]\n[1, 0]\n[1, 0]\n[1, 0]\n[1, 0]\n[1, 0]\n[1, 0]\n[1, 0]\n[1, 0]\n[0, 1]]"] ;
371 -> 373 ;
374 [label="X[6] <= -1.028\ngini = 0.074\nsamples = 3\nvalue = [[3, 0]\n[3, 0]\n[3, 0]\n[3, 0]\n[3, 0]\n[3, 0]\n[3, 0]\n[3, 0]\n[3, 0]\n[3, 0]\n[1, 2]\n[2, 1]]"] ;
360 -> 374 ;
375 [label="gini = 0.0\nsamples = 1\nvalue = [[1, 0]\n[1, 0]\n[1, 0]\n[1, 0]\n[1, 0]\n[1, 0]\n[1, 0]\n[1, 0]\n[1, 0]\n[1, 0]\n[1, 0]\n[0, 1]]"] ;
374 -> 375 ;
376 [label="gini = 0.0\nsamples = 2\nvalue = [[2, 0]\n[2, 0]\n[2, 0]\n[2, 0]\n[2, 0]\n[2, 0]\n[2, 0]\n[2, 0]\n[2, 0]\n[2, 0]\n[0, 2]\n[2, 0]]"] ;
374 -> 376 ;
377 [label="X[9] <= -2.642\ngini = 0.019\nsamples = 226\nvalue = [[226, 0]\n[226, 0]\n[226, 0]\n[226, 0]\n[226, 0]\n[226, 0]\n[226, 0]\n[226, 0]\n[226, 0]\n[226, 0]\n[14, 212]\n[212, 14]]"] ;
321 -> 377 ;
378 [label="gini = 0.0\nsamples = 1\nvalue = [[1, 0]\n[1, 0]\n[1, 0]\n[1, 0]\n[1, 0]\n[1, 0]\n[1, 0]\n[1, 0]\n[1, 0]\n[1, 0]\n[1, 0]\n[0, 1]]"] ;
377 -> 378 ;
379 [label="X[5] <= -1.216\ngini = 0.018\nsamples = 225\nvalue = [[225, 0]\n[225, 0]\n[225, 0]\n[225, 0]\n[225, 0]\n[225, 0]\n[225, 0]\n[225, 0]\n[225, 0]\n[225, 0]\n[13, 212]\n[212, 13]]"] ;
377 -> 379 ;
380 [label="X[9] <= 1.587\ngini = 0.003\nsamples = 126\nvalue = [[126, 0]\n[126, 0]\n[126, 0]\n[126, 0]\n[126, 0]\n[126, 0]\n[126, 0]\n[126, 0]\n[126, 0]\n[126, 0]\n[1, 125]\n[125, 1]]"] ;
379 -> 380 ;
381 [label="gini = 0.0\nsamples = 124\nvalue = [[124, 0]\n[124, 0]\n[124, 0]\n[124, 0]\n[124, 0]\n[124, 0]\n[124, 0]\n[124, 0]\n[124, 0]\n[124, 0]\n[0, 124]\n[124, 0]]"] ;
380 -> 381 ;
382 [label="X[7] <= -0.644\ngini = 0.083\nsamples = 2\nvalue = [[2, 0]\n[2, 0]\n[2, 0]\n[2, 0]\n[2, 0]\n[2, 0]\n[2, 0]\n[2, 0]\n[2, 0]\n[2, 0]\n[1, 1]\n[1, 1]]"] ;
380 -> 382 ;
383 [label="gini = 0.0\nsamples = 1\nvalue = [[1, 0]\n[1, 0]\n[1, 0]\n[1, 0]\n[1, 0]\n[1, 0]\n[1, 0]\n[1, 0]\n[1, 0]\n[1, 0]\n[0, 1]\n[1, 0]]"] ;
382 -> 383 ;
384 [label="gini = 0.0\nsamples = 1\nvalue = [[1, 0]\n[1, 0]\n[1, 0]\n[1, 0]\n[1, 0]\n[1, 0]\n[1, 0]\n[1, 0]\n[1, 0]\n[1, 0]\n[1, 0]\n[0, 1]]"] ;
382 -> 384 ;
385 [label="X[7] <= -0.691\ngini = 0.036\nsamples = 99\nvalue = [[99, 0]\n[99, 0]\n[99, 0]\n[99, 0]\n[99, 0]\n[99, 0]\n[99, 0]\n[99, 0]\n[99, 0]\n[99, 0]\n[12, 87]\n[87, 12]]"] ;
379 -> 385 ;
386 [label="X[6] <= -0.565\ngini = 0.062\nsamples = 45\nvalue = [[45, 0]\n[45, 0]\n[45, 0]\n[45, 0]\n[45, 0]\n[45, 0]\n[45, 0]\n[45, 0]\n[45, 0]\n[45, 0]\n[11, 34]\n[34, 11]]"] ;
385 -> 386 ;
387 [label="X[4] <= -1.348\ngini = 0.028\nsamples = 32\nvalue = [[32, 0]\n[32, 0]\n[32, 0]\n[32, 0]\n[32, 0]\n[32, 0]\n[32, 0]\n[32, 0]\n[32, 0]\n[32, 0]\n[3, 29]\n[29, 3]]"] ;
386 -> 387 ;
388 [label="X[6] <= -1.456\ngini = 0.02\nsamples = 31\nvalue = [[31, 0]\n[31, 0]\n[31, 0]\n[31, 0]\n[31, 0]\n[31, 0]\n[31, 0]\n[31, 0]\n[31, 0]\n[31, 0]\n[2, 29]\n[29, 2]]"] ;
387 -> 388 ;
389 [label="X[8] <= -1.474\ngini = 0.083\nsamples = 4\nvalue = [[4, 0]\n[4, 0]\n[4, 0]\n[4, 0]\n[4, 0]\n[4, 0]\n[4, 0]\n[4, 0]\n[4, 0]\n[4, 0]\n[2, 2]\n[2, 2]]"] ;
388 -> 389 ;
390 [label="gini = 0.0\nsamples = 2\nvalue = [[2, 0]\n[2, 0]\n[2, 0]\n[2, 0]\n[2, 0]\n[2, 0]\n[2, 0]\n[2, 0]\n[2, 0]\n[2, 0]\n[2, 0]\n[0, 2]]"] ;
389 -> 390 ;
391 [label="gini = 0.0\nsamples = 2\nvalue = [[2, 0]\n[2, 0]\n[2, 0]\n[2, 0]\n[2, 0]\n[2, 0]\n[2, 0]\n[2, 0]\n[2, 0]\n[2, 0]\n[0, 2]\n[2, 0]]"] ;
389 -> 391 ;
392 [label="gini = 0.0\nsamples = 27\nvalue = [[27, 0]\n[27, 0]\n[27, 0]\n[27, 0]\n[27, 0]\n[27, 0]\n[27, 0]\n[27, 0]\n[27, 0]\n[27, 0]\n[0, 27]\n[27, 0]]"] ;
388 -> 392 ;
393 [label="gini = 0.0\nsamples = 1\nvalue = [[1, 0]\n[1, 0]\n[1, 0]\n[1, 0]\n[1, 0]\n[1, 0]\n[1, 0]\n[1, 0]\n[1, 0]\n[1, 0]\n[1, 0]\n[0, 1]]"] ;
387 -> 393 ;
394 [label="X[9] <= -0.221\ngini = 0.079\nsamples = 13\nvalue = [[13, 0]\n[13, 0]\n[13, 0]\n[13, 0]\n[13, 0]\n[13, 0]\n[13, 0]\n[13, 0]\n[13, 0]\n[13, 0]\n[8, 5]\n[5, 8]]"] ;
386 -> 394 ;
395 [label="gini = 0.0\nsamples = 8\nvalue = [[8, 0]\n[8, 0]\n[8, 0]\n[8, 0]\n[8, 0]\n[8, 0]\n[8, 0]\n[8, 0]\n[8, 0]\n[8, 0]\n[8, 0]\n[0, 8]]"] ;
394 -> 395 ;
396 [label="gini = 0.0\nsamples = 5\nvalue = [[5, 0]\n[5, 0]\n[5, 0]\n[5, 0]\n[5, 0]\n[5, 0]\n[5, 0]\n[5, 0]\n[5, 0]\n[5, 0]\n[0, 5]\n[5, 0]]"] ;
394 -> 396 ;
397 [label="X[9] <= 0.989\ngini = 0.006\nsamples = 54\nvalue = [[54, 0]\n[54, 0]\n[54, 0]\n[54, 0]\n[54, 0]\n[54, 0]\n[54, 0]\n[54, 0]\n[54, 0]\n[54, 0]\n[1, 53]\n[53, 1]]"] ;
385 -> 397 ;
398 [label="gini = 0.0\nsamples = 51\nvalue = [[51, 0]\n[51, 0]\n[51, 0]\n[51, 0]\n[51, 0]\n[51, 0]\n[51, 0]\n[51, 0]\n[51, 0]\n[51, 0]\n[0, 51]\n[51, 0]]"] ;
397 -> 398 ;
399 [label="X[7] <= -0.62\ngini = 0.074\nsamples = 3\nvalue = [[3, 0]\n[3, 0]\n[3, 0]\n[3, 0]\n[3, 0]\n[3, 0]\n[3, 0]\n[3, 0]\n[3, 0]\n[3, 0]\n[1, 2]\n[2, 1]]"] ;
397 -> 399 ;
400 [label="gini = 0.0\nsamples = 1\nvalue = [[1, 0]\n[1, 0]\n[1, 0]\n[1, 0]\n[1, 0]\n[1, 0]\n[1, 0]\n[1, 0]\n[1, 0]\n[1, 0]\n[1, 0]\n[0, 1]]"] ;
399 -> 400 ;
401 [label="gini = 0.0\nsamples = 2\nvalue = [[2, 0]\n[2, 0]\n[2, 0]\n[2, 0]\n[2, 0]\n[2, 0]\n[2, 0]\n[2, 0]\n[2, 0]\n[2, 0]\n[0, 2]\n[2, 0]]"] ;
399 -> 401 ;
402 [label="X[6] <= -1.181\ngini = 0.078\nsamples = 195\nvalue = [[195, 0]\n[195, 0]\n[195, 0]\n[195, 0]\n[195, 0]\n[195, 0]\n[195, 0]\n[195, 0]\n[195, 0]\n[195, 0]\n[123, 72]\n[72, 123]]"] ;
320 -> 402 ;
403 [label="X[0] <= -0.961\ngini = 0.025\nsamples = 24\nvalue = [[24, 0]\n[24, 0]\n[24, 0]\n[24, 0]\n[24, 0]\n[24, 0]\n[24, 0]\n[24, 0]\n[24, 0]\n[24, 0]\n[2, 22]\n[22, 2]]"] ;
402 -> 403 ;
404 [label="gini = 0.0\nsamples = 22\nvalue = [[22, 0]\n[22, 0]\n[22, 0]\n[22, 0]\n[22, 0]\n[22, 0]\n[22, 0]\n[22, 0]\n[22, 0]\n[22, 0]\n[0, 22]\n[22, 0]]"] ;
403 -> 404 ;
405 [label="gini = 0.0\nsamples = 2\nvalue = [[2, 0]\n[2, 0]\n[2, 0]\n[2, 0]\n[2, 0]\n[2, 0]\n[2, 0]\n[2, 0]\n[2, 0]\n[2, 0]\n[2, 0]\n[0, 2]]"] ;
403 -> 405 ;
406 [label="X[8] <= -1.308\ngini = 0.069\nsamples = 171\nvalue = [[171, 0]\n[171, 0]\n[171, 0]\n[171, 0]\n[171, 0]\n[171, 0]\n[171, 0]\n[171, 0]\n[171, 0]\n[171, 0]\n[121, 50]\n[50, 121]]"] ;
402 -> 406 ;
407 [label="X[3] <= -1.193\ngini = 0.053\nsamples = 135\nvalue = [[135, 0]\n[135, 0]\n[135, 0]\n[135, 0]\n[135, 0]\n[135, 0]\n[135, 0]\n[135, 0]\n[135, 0]\n[135, 0]\n[108, 27]\n[27, 108]]"] ;
406 -> 407 ;
408 [label="X[7] <= -0.549\ngini = 0.033\nsamples = 9\nvalue = [[9, 0]\n[9, 0]\n[9, 0]\n[9, 0]\n[9, 0]\n[9, 0]\n[9, 0]\n[9, 0]\n[9, 0]\n[9, 0]\n[1, 8]\n[8, 1]]"] ;
407 -> 408 ;
409 [label="gini = 0.0\nsamples = 8\nvalue = [[8, 0]\n[8, 0]\n[8, 0]\n[8, 0]\n[8, 0]\n[8, 0]\n[8, 0]\n[8, 0]\n[8, 0]\n[8, 0]\n[0, 8]\n[8, 0]]"] ;
408 -> 409 ;
410 [label="gini = 0.0\nsamples = 1\nvalue = [[1, 0]\n[1, 0]\n[1, 0]\n[1, 0]\n[1, 0]\n[1, 0]\n[1, 0]\n[1, 0]\n[1, 0]\n[1, 0]\n[1, 0]\n[0, 1]]"] ;
408 -> 410 ;
411 [label="X[2] <= -0.811\ngini = 0.043\nsamples = 126\nvalue = [[126, 0]\n[126, 0]\n[126, 0]\n[126, 0]\n[126, 0]\n[126, 0]\n[126, 0]\n[126, 0]\n[126, 0]\n[126, 0]\n[107, 19]\n[19, 107]]"] ;
407 -> 411 ;
412 [label="X[8] <= -1.578\ngini = 0.017\nsamples = 95\nvalue = [[95, 0]\n[95, 0]\n[95, 0]\n[95, 0]\n[95, 0]\n[95, 0]\n[95, 0]\n[95, 0]\n[95, 0]\n[95, 0]\n[90, 5]\n[5, 90]]"] ;
411 -> 412 ;
413 [label="gini = 0.0\nsamples = 1\nvalue = [[1, 0]\n[1, 0]\n[1, 0]\n[1, 0]\n[1, 0]\n[1, 0]\n[1, 0]\n[1, 0]\n[1, 0]\n[1, 0]\n[0, 1]\n[1, 0]]"] ;
412 -> 413 ;
414 [label="X[1] <= -0.835\ngini = 0.014\nsamples = 94\nvalue = [[94, 0]\n[94, 0]\n[94, 0]\n[94, 0]\n[94, 0]\n[94, 0]\n[94, 0]\n[94, 0]\n[94, 0]\n[94, 0]\n[90, 4]\n[4, 90]]"] ;
412 -> 414 ;
415 [label="X[9] <= 1.88\ngini = 0.01\nsamples = 93\nvalue = [[93, 0]\n[93, 0]\n[93, 0]\n[93, 0]\n[93, 0]\n[93, 0]\n[93, 0]\n[93, 0]\n[93, 0]\n[93, 0]\n[90, 3]\n[3, 90]]"] ;
414 -> 415 ;
416 [label="X[6] <= -1.129\ngini = 0.007\nsamples = 91\nvalue = [[91, 0]\n[91, 0]\n[91, 0]\n[91, 0]\n[91, 0]\n[91, 0]\n[91, 0]\n[91, 0]\n[91, 0]\n[91, 0]\n[89, 2]\n[2, 89]]"] ;
415 -> 416 ;
417 [label="X[8] <= -1.434\ngini = 0.062\nsamples = 4\nvalue = [[4, 0]\n[4, 0]\n[4, 0]\n[4, 0]\n[4, 0]\n[4, 0]\n[4, 0]\n[4, 0]\n[4, 0]\n[4, 0]\n[3, 1]\n[1, 3]]"] ;
416 -> 417 ;
418 [label="gini = 0.0\nsamples = 1\nvalue = [[1, 0]\n[1, 0]\n[1, 0]\n[1, 0]\n[1, 0]\n[1, 0]\n[1, 0]\n[1, 0]\n[1, 0]\n[1, 0]\n[0, 1]\n[1, 0]]"] ;
417 -> 418 ;
419 [label="gini = 0.0\nsamples = 3\nvalue = [[3, 0]\n[3, 0]\n[3, 0]\n[3, 0]\n[3, 0]\n[3, 0]\n[3, 0]\n[3, 0]\n[3, 0]\n[3, 0]\n[3, 0]\n[0, 3]]"] ;
417 -> 419 ;
420 [label="X[9] <= -1.237\ngini = 0.004\nsamples = 87\nvalue = [[87, 0]\n[87, 0]\n[87, 0]\n[87, 0]\n[87, 0]\n[87, 0]\n[87, 0]\n[87, 0]\n[87, 0]\n[87, 0]\n[86, 1]\n[1, 86]]"] ;
416 -> 420 ;
421 [label="X[5] <= -0.896\ngini = 0.025\nsamples = 12\nvalue = [[12, 0]\n[12, 0]\n[12, 0]\n[12, 0]\n[12, 0]\n[12, 0]\n[12, 0]\n[12, 0]\n[12, 0]\n[12, 0]\n[11, 1]\n[1, 11]]"] ;
420 -> 421 ;
422 [label="X[9] <= -1.682\ngini = 0.083\nsamples = 2\nvalue = [[2, 0]\n[2, 0]\n[2, 0]\n[2, 0]\n[2, 0]\n[2, 0]\n[2, 0]\n[2, 0]\n[2, 0]\n[2, 0]\n[1, 1]\n[1, 1]]"] ;
421 -> 422 ;
423 [label="gini = 0.0\nsamples = 1\nvalue = [[1, 0]\n[1, 0]\n[1, 0]\n[1, 0]\n[1, 0]\n[1, 0]\n[1, 0]\n[1, 0]\n[1, 0]\n[1, 0]\n[1, 0]\n[0, 1]]"] ;
422 -> 423 ;
424 [label="gini = 0.0\nsamples = 1\nvalue = [[1, 0]\n[1, 0]\n[1, 0]\n[1, 0]\n[1, 0]\n[1, 0]\n[1, 0]\n[1, 0]\n[1, 0]\n[1, 0]\n[0, 1]\n[1, 0]]"] ;
422 -> 424 ;
425 [label="gini = 0.0\nsamples = 10\nvalue = [[10, 0]\n[10, 0]\n[10, 0]\n[10, 0]\n[10, 0]\n[10, 0]\n[10, 0]\n[10, 0]\n[10, 0]\n[10, 0]\n[10, 0]\n[0, 10]]"] ;
421 -> 425 ;
426 [label="gini = 0.0\nsamples = 75\nvalue = [[75, 0]\n[75, 0]\n[75, 0]\n[75, 0]\n[75, 0]\n[75, 0]\n[75, 0]\n[75, 0]\n[75, 0]\n[75, 0]\n[75, 0]\n[0, 75]]"] ;
420 -> 426 ;
427 [label="X[6] <= -0.829\ngini = 0.083\nsamples = 2\nvalue = [[2, 0]\n[2, 0]\n[2, 0]\n[2, 0]\n[2, 0]\n[2, 0]\n[2, 0]\n[2, 0]\n[2, 0]\n[2, 0]\n[1, 1]\n[1, 1]]"] ;
415 -> 427 ;
428 [label="gini = 0.0\nsamples = 1\nvalue = [[1, 0]\n[1, 0]\n[1, 0]\n[1, 0]\n[1, 0]\n[1, 0]\n[1, 0]\n[1, 0]\n[1, 0]\n[1, 0]\n[1, 0]\n[0, 1]]"] ;
427 -> 428 ;
429 [label="gini = 0.0\nsamples = 1\nvalue = [[1, 0]\n[1, 0]\n[1, 0]\n[1, 0]\n[1, 0]\n[1, 0]\n[1, 0]\n[1, 0]\n[1, 0]\n[1, 0]\n[0, 1]\n[1, 0]]"] ;
427 -> 429 ;
430 [label="gini = 0.0\nsamples = 1\nvalue = [[1, 0]\n[1, 0]\n[1, 0]\n[1, 0]\n[1, 0]\n[1, 0]\n[1, 0]\n[1, 0]\n[1, 0]\n[1, 0]\n[0, 1]\n[1, 0]]"] ;
414 -> 430 ;
431 [label="X[7] <= -0.691\ngini = 0.083\nsamples = 31\nvalue = [[31, 0]\n[31, 0]\n[31, 0]\n[31, 0]\n[31, 0]\n[31, 0]\n[31, 0]\n[31, 0]\n[31, 0]\n[31, 0]\n[17, 14]\n[14, 17]]"] ;
411 -> 431 ;
432 [label="gini = 0.0\nsamples = 9\nvalue = [[9, 0]\n[9, 0]\n[9, 0]\n[9, 0]\n[9, 0]\n[9, 0]\n[9, 0]\n[9, 0]\n[9, 0]\n[9, 0]\n[9, 0]\n[0, 9]]"] ;
431 -> 432 ;
433 [label="X[5] <= -0.736\ngini = 0.077\nsamples = 22\nvalue = [[22, 0]\n[22, 0]\n[22, 0]\n[22, 0]\n[22, 0]\n[22, 0]\n[22, 0]\n[22, 0]\n[22, 0]\n[22, 0]\n[8, 14]\n[14, 8]]"] ;
431 -> 433 ;
434 [label="X[6] <= -0.638\ngini = 0.046\nsamples = 12\nvalue = [[12, 0]\n[12, 0]\n[12, 0]\n[12, 0]\n[12, 0]\n[12, 0]\n[12, 0]\n[12, 0]\n[12, 0]\n[12, 0]\n[2, 10]\n[10, 2]]"] ;
433 -> 434 ;
435 [label="gini = 0.0\nsamples = 8\nvalue = [[8, 0]\n[8, 0]\n[8, 0]\n[8, 0]\n[8, 0]\n[8, 0]\n[8, 0]\n[8, 0]\n[8, 0]\n[8, 0]\n[0, 8]\n[8, 0]]"] ;
434 -> 435 ;
436 [label="X[0] <= -0.971\ngini = 0.083\nsamples = 4\nvalue = [[4, 0]\n[4, 0]\n[4, 0]\n[4, 0]\n[4, 0]\n[4, 0]\n[4, 0]\n[4, 0]\n[4, 0]\n[4, 0]\n[2, 2]\n[2, 2]]"] ;
434 -> 436 ;
437 [label="gini = 0.0\nsamples = 2\nvalue = [[2, 0]\n[2, 0]\n[2, 0]\n[2, 0]\n[2, 0]\n[2, 0]\n[2, 0]\n[2, 0]\n[2, 0]\n[2, 0]\n[2, 0]\n[0, 2]]"] ;
436 -> 437 ;
438 [label="gini = 0.0\nsamples = 2\nvalue = [[2, 0]\n[2, 0]\n[2, 0]\n[2, 0]\n[2, 0]\n[2, 0]\n[2, 0]\n[2, 0]\n[2, 0]\n[2, 0]\n[0, 2]\n[2, 0]]"] ;
436 -> 438 ;
439 [label="X[9] <= -0.541\ngini = 0.08\nsamples = 10\nvalue = [[10, 0]\n[10, 0]\n[10, 0]\n[10, 0]\n[10, 0]\n[10, 0]\n[10, 0]\n[10, 0]\n[10, 0]\n[10, 0]\n[6, 4]\n[4, 6]]"] ;
433 -> 439 ;
440 [label="gini = 0.0\nsamples = 5\nvalue = [[5, 0]\n[5, 0]\n[5, 0]\n[5, 0]\n[5, 0]\n[5, 0]\n[5, 0]\n[5, 0]\n[5, 0]\n[5, 0]\n[5, 0]\n[0, 5]]"] ;
439 -> 440 ;
441 [label="X[4] <= -1.49\ngini = 0.053\nsamples = 5\nvalue = [[5, 0]\n[5, 0]\n[5, 0]\n[5, 0]\n[5, 0]\n[5, 0]\n[5, 0]\n[5, 0]\n[5, 0]\n[5, 0]\n[1, 4]\n[4, 1]]"] ;
439 -> 441 ;
442 [label="gini = 0.0\nsamples = 1\nvalue = [[1, 0]\n[1, 0]\n[1, 0]\n[1, 0]\n[1, 0]\n[1, 0]\n[1, 0]\n[1, 0]\n[1, 0]\n[1, 0]\n[1, 0]\n[0, 1]]"] ;
441 -> 442 ;
443 [label="gini = 0.0\nsamples = 4\nvalue = [[4, 0]\n[4, 0]\n[4, 0]\n[4, 0]\n[4, 0]\n[4, 0]\n[4, 0]\n[4, 0]\n[4, 0]\n[4, 0]\n[0, 4]\n[4, 0]]"] ;
441 -> 443 ;
444 [label="X[9] <= -0.68\ngini = 0.077\nsamples = 36\nvalue = [[36, 0]\n[36, 0]\n[36, 0]\n[36, 0]\n[36, 0]\n[36, 0]\n[36, 0]\n[36, 0]\n[36, 0]\n[36, 0]\n[13, 23]\n[23, 13]]"] ;
406 -> 444 ;
445 [label="X[8] <= -1.3\ngini = 0.077\nsamples = 14\nvalue = [[14, 0]\n[14, 0]\n[14, 0]\n[14, 0]\n[14, 0]\n[14, 0]\n[14, 0]\n[14, 0]\n[14, 0]\n[14, 0]\n[9, 5]\n[5, 9]]"] ;
444 -> 445 ;
446 [label="gini = 0.0\nsamples = 3\nvalue = [[3, 0]\n[3, 0]\n[3, 0]\n[3, 0]\n[3, 0]\n[3, 0]\n[3, 0]\n[3, 0]\n[3, 0]\n[3, 0]\n[0, 3]\n[3, 0]]"] ;
445 -> 446 ;
447 [label="X[0] <= -0.921\ngini = 0.05\nsamples = 11\nvalue = [[11, 0]\n[11, 0]\n[11, 0]\n[11, 0]\n[11, 0]\n[11, 0]\n[11, 0]\n[11, 0]\n[11, 0]\n[11, 0]\n[9, 2]\n[2, 9]]"] ;
445 -> 447 ;
448 [label="gini = 0.0\nsamples = 9\nvalue = [[9, 0]\n[9, 0]\n[9, 0]\n[9, 0]\n[9, 0]\n[9, 0]\n[9, 0]\n[9, 0]\n[9, 0]\n[9, 0]\n[9, 0]\n[0, 9]]"] ;
447 -> 448 ;
449 [label="gini = 0.0\nsamples = 2\nvalue = [[2, 0]\n[2, 0]\n[2, 0]\n[2, 0]\n[2, 0]\n[2, 0]\n[2, 0]\n[2, 0]\n[2, 0]\n[2, 0]\n[0, 2]\n[2, 0]]"] ;
447 -> 449 ;
450 [label="X[7] <= -0.726\ngini = 0.05\nsamples = 22\nvalue = [[22, 0]\n[22, 0]\n[22, 0]\n[22, 0]\n[22, 0]\n[22, 0]\n[22, 0]\n[22, 0]\n[22, 0]\n[22, 0]\n[4, 18]\n[18, 4]]"] ;
444 -> 450 ;
451 [label="X[8] <= -1.223\ngini = 0.08\nsamples = 5\nvalue = [[5, 0]\n[5, 0]\n[5, 0]\n[5, 0]\n[5, 0]\n[5, 0]\n[5, 0]\n[5, 0]\n[5, 0]\n[5, 0]\n[3, 2]\n[2, 3]]"] ;
450 -> 451 ;
452 [label="gini = 0.0\nsamples = 3\nvalue = [[3, 0]\n[3, 0]\n[3, 0]\n[3, 0]\n[3, 0]\n[3, 0]\n[3, 0]\n[3, 0]\n[3, 0]\n[3, 0]\n[3, 0]\n[0, 3]]"] ;
451 -> 452 ;
453 [label="gini = 0.0\nsamples = 2\nvalue = [[2, 0]\n[2, 0]\n[2, 0]\n[2, 0]\n[2, 0]\n[2, 0]\n[2, 0]\n[2, 0]\n[2, 0]\n[2, 0]\n[0, 2]\n[2, 0]]"] ;
451 -> 453 ;
454 [label="X[1] <= -1.99\ngini = 0.018\nsamples = 17\nvalue = [[17, 0]\n[17, 0]\n[17, 0]\n[17, 0]\n[17, 0]\n[17, 0]\n[17, 0]\n[17, 0]\n[17, 0]\n[17, 0]\n[1, 16]\n[16, 1]]"] ;
450 -> 454 ;
455 [label="gini = 0.0\nsamples = 16\nvalue = [[16, 0]\n[16, 0]\n[16, 0]\n[16, 0]\n[16, 0]\n[16, 0]\n[16, 0]\n[16, 0]\n[16, 0]\n[16, 0]\n[0, 16]\n[16, 0]]"] ;
454 -> 455 ;
456 [label="gini = 0.0\nsamples = 1\nvalue = [[1, 0]\n[1, 0]\n[1, 0]\n[1, 0]\n[1, 0]\n[1, 0]\n[1, 0]\n[1, 0]\n[1, 0]\n[1, 0]\n[1, 0]\n[0, 1]]"] ;
454 -> 456 ;
457 [label="X[5] <= -0.736\ngini = 0.027\nsamples = 494\nvalue = [[494, 0]\n[494, 0]\n[494, 0]\n[494, 0]\n[494, 0]\n[494, 0]\n[494, 0]\n[494, 0]\n[494, 0]\n[493, 1]\n[44, 450]\n[451, 43]]"] ;
319 -> 457 ;
458 [label="X[0] <= -1.04\ngini = 0.006\nsamples = 263\nvalue = [[263, 0]\n[263, 0]\n[263, 0]\n[263, 0]\n[263, 0]\n[263, 0]\n[263, 0]\n[263, 0]\n[263, 0]\n[263, 0]\n[5, 258]\n[258, 5]]"] ;
457 -> 458 ;
459 [label="X[4] <= -1.449\ngini = 0.053\nsamples = 10\nvalue = [[10, 0]\n[10, 0]\n[10, 0]\n[10, 0]\n[10, 0]\n[10, 0]\n[10, 0]\n[10, 0]\n[10, 0]\n[10, 0]\n[2, 8]\n[8, 2]]"] ;
458 -> 459 ;
460 [label="gini = 0.0\nsamples = 2\nvalue = [[2, 0]\n[2, 0]\n[2, 0]\n[2, 0]\n[2, 0]\n[2, 0]\n[2, 0]\n[2, 0]\n[2, 0]\n[2, 0]\n[2, 0]\n[0, 2]]"] ;
459 -> 460 ;
461 [label="gini = 0.0\nsamples = 8\nvalue = [[8, 0]\n[8, 0]\n[8, 0]\n[8, 0]\n[8, 0]\n[8, 0]\n[8, 0]\n[8, 0]\n[8, 0]\n[8, 0]\n[0, 8]\n[8, 0]]"] ;
459 -> 461 ;
462 [label="X[4] <= -1.344\ngini = 0.004\nsamples = 253\nvalue = [[253, 0]\n[253, 0]\n[253, 0]\n[253, 0]\n[253, 0]\n[253, 0]\n[253, 0]\n[253, 0]\n[253, 0]\n[253, 0]\n[3, 250]\n[250, 3]]"] ;
458 -> 462 ;
463 [label="X[7] <= -0.455\ngini = 0.003\nsamples = 247\nvalue = [[247, 0]\n[247, 0]\n[247, 0]\n[247, 0]\n[247, 0]\n[247, 0]\n[247, 0]\n[247, 0]\n[247, 0]\n[247, 0]\n[2, 245]\n[245, 2]]"] ;
462 -> 463 ;
464 [label="X[5] <= -0.816\ngini = 0.01\nsamples = 63\nvalue = [[63, 0]\n[63, 0]\n[63, 0]\n[63, 0]\n[63, 0]\n[63, 0]\n[63, 0]\n[63, 0]\n[63, 0]\n[63, 0]\n[2, 61]\n[61, 2]]"] ;
463 -> 464 ;
465 [label="X[0] <= -1.001\ngini = 0.006\nsamples = 57\nvalue = [[57, 0]\n[57, 0]\n[57, 0]\n[57, 0]\n[57, 0]\n[57, 0]\n[57, 0]\n[57, 0]\n[57, 0]\n[57, 0]\n[1, 56]\n[56, 1]]"] ;
464 -> 465 ;
466 [label="X[4] <= -1.406\ngini = 0.033\nsamples = 9\nvalue = [[9, 0]\n[9, 0]\n[9, 0]\n[9, 0]\n[9, 0]\n[9, 0]\n[9, 0]\n[9, 0]\n[9, 0]\n[9, 0]\n[1, 8]\n[8, 1]]"] ;
465 -> 466 ;
467 [label="X[4] <= -1.414\ngini = 0.074\nsamples = 3\nvalue = [[3, 0]\n[3, 0]\n[3, 0]\n[3, 0]\n[3, 0]\n[3, 0]\n[3, 0]\n[3, 0]\n[3, 0]\n[3, 0]\n[1, 2]\n[2, 1]]"] ;
466 -> 467 ;
468 [label="gini = 0.0\nsamples = 2\nvalue = [[2, 0]\n[2, 0]\n[2, 0]\n[2, 0]\n[2, 0]\n[2, 0]\n[2, 0]\n[2, 0]\n[2, 0]\n[2, 0]\n[0, 2]\n[2, 0]]"] ;
467 -> 468 ;
469 [label="gini = 0.0\nsamples = 1\nvalue = [[1, 0]\n[1, 0]\n[1, 0]\n[1, 0]\n[1, 0]\n[1, 0]\n[1, 0]\n[1, 0]\n[1, 0]\n[1, 0]\n[1, 0]\n[0, 1]]"] ;
467 -> 469 ;
470 [label="gini = 0.0\nsamples = 6\nvalue = [[6, 0]\n[6, 0]\n[6, 0]\n[6, 0]\n[6, 0]\n[6, 0]\n[6, 0]\n[6, 0]\n[6, 0]\n[6, 0]\n[0, 6]\n[6, 0]]"] ;
466 -> 470 ;
471 [label="gini = 0.0\nsamples = 48\nvalue = [[48, 0]\n[48, 0]\n[48, 0]\n[48, 0]\n[48, 0]\n[48, 0]\n[48, 0]\n[48, 0]\n[48, 0]\n[48, 0]\n[0, 48]\n[48, 0]]"] ;
465 -> 471 ;
472 [label="X[9] <= -1.014\ngini = 0.046\nsamples = 6\nvalue = [[6, 0]\n[6, 0]\n[6, 0]\n[6, 0]\n[6, 0]\n[6, 0]\n[6, 0]\n[6, 0]\n[6, 0]\n[6, 0]\n[1, 5]\n[5, 1]]"] ;
464 -> 472 ;
473 [label="X[4] <= -1.468\ngini = 0.083\nsamples = 2\nvalue = [[2, 0]\n[2, 0]\n[2, 0]\n[2, 0]\n[2, 0]\n[2, 0]\n[2, 0]\n[2, 0]\n[2, 0]\n[2, 0]\n[1, 1]\n[1, 1]]"] ;
472 -> 473 ;
474 [label="gini = 0.0\nsamples = 1\nvalue = [[1, 0]\n[1, 0]\n[1, 0]\n[1, 0]\n[1, 0]\n[1, 0]\n[1, 0]\n[1, 0]\n[1, 0]\n[1, 0]\n[0, 1]\n[1, 0]]"] ;
473 -> 474 ;
475 [label="gini = 0.0\nsamples = 1\nvalue = [[1, 0]\n[1, 0]\n[1, 0]\n[1, 0]\n[1, 0]\n[1, 0]\n[1, 0]\n[1, 0]\n[1, 0]\n[1, 0]\n[1, 0]\n[0, 1]]"] ;
473 -> 475 ;
476 [label="gini = 0.0\nsamples = 4\nvalue = [[4, 0]\n[4, 0]\n[4, 0]\n[4, 0]\n[4, 0]\n[4, 0]\n[4, 0]\n[4, 0]\n[4, 0]\n[4, 0]\n[0, 4]\n[4, 0]]"] ;
472 -> 476 ;
477 [label="gini = 0.0\nsamples = 184\nvalue = [[184, 0]\n[184, 0]\n[184, 0]\n[184, 0]\n[184, 0]\n[184, 0]\n[184, 0]\n[184, 0]\n[184, 0]\n[184, 0]\n[0, 184]\n[184, 0]]"] ;
463 -> 477 ;
478 [label="X[7] <= -0.502\ngini = 0.046\nsamples = 6\nvalue = [[6, 0]\n[6, 0]\n[6, 0]\n[6, 0]\n[6, 0]\n[6, 0]\n[6, 0]\n[6, 0]\n[6, 0]\n[6, 0]\n[1, 5]\n[5, 1]]"] ;
462 -> 478 ;
479 [label="gini = 0.0\nsamples = 1\nvalue = [[1, 0]\n[1, 0]\n[1, 0]\n[1, 0]\n[1, 0]\n[1, 0]\n[1, 0]\n[1, 0]\n[1, 0]\n[1, 0]\n[1, 0]\n[0, 1]]"] ;
478 -> 479 ;
480 [label="gini = 0.0\nsamples = 5\nvalue = [[5, 0]\n[5, 0]\n[5, 0]\n[5, 0]\n[5, 0]\n[5, 0]\n[5, 0]\n[5, 0]\n[5, 0]\n[5, 0]\n[0, 5]\n[5, 0]]"] ;
478 -> 480 ;
481 [label="X[7] <= -0.361\ngini = 0.047\nsamples = 231\nvalue = [[231, 0]\n[231, 0]\n[231, 0]\n[231, 0]\n[231, 0]\n[231, 0]\n[231, 0]\n[231, 0]\n[231, 0]\n[230, 1]\n[39, 192]\n[193, 38]]"] ;
457 -> 481 ;
482 [label="X[9] <= -0.291\ngini = 0.079\nsamples = 65\nvalue = [[65, 0]\n[65, 0]\n[65, 0]\n[65, 0]\n[65, 0]\n[65, 0]\n[65, 0]\n[65, 0]\n[65, 0]\n[65, 0]\n[25, 40]\n[40, 25]]"] ;
481 -> 482 ;
483 [label="X[4] <= -1.423\ngini = 0.083\nsamples = 42\nvalue = [[42, 0]\n[42, 0]\n[42, 0]\n[42, 0]\n[42, 0]\n[42, 0]\n[42, 0]\n[42, 0]\n[42, 0]\n[42, 0]\n[23, 19]\n[19, 23]]"] ;
482 -> 483 ;
484 [label="X[6] <= -0.395\ngini = 0.035\nsamples = 17\nvalue = [[17, 0]\n[17, 0]\n[17, 0]\n[17, 0]\n[17, 0]\n[17, 0]\n[17, 0]\n[17, 0]\n[17, 0]\n[17, 0]\n[15, 2]\n[2, 15]]"] ;
483 -> 484 ;
485 [label="gini = 0.0\nsamples = 14\nvalue = [[14, 0]\n[14, 0]\n[14, 0]\n[14, 0]\n[14, 0]\n[14, 0]\n[14, 0]\n[14, 0]\n[14, 0]\n[14, 0]\n[14, 0]\n[0, 14]]"] ;
484 -> 485 ;
486 [label="X[8] <= -1.416\ngini = 0.074\nsamples = 3\nvalue = [[3, 0]\n[3, 0]\n[3, 0]\n[3, 0]\n[3, 0]\n[3, 0]\n[3, 0]\n[3, 0]\n[3, 0]\n[3, 0]\n[1, 2]\n[2, 1]]"] ;
484 -> 486 ;
487 [label="gini = 0.0\nsamples = 1\nvalue = [[1, 0]\n[1, 0]\n[1, 0]\n[1, 0]\n[1, 0]\n[1, 0]\n[1, 0]\n[1, 0]\n[1, 0]\n[1, 0]\n[1, 0]\n[0, 1]]"] ;
486 -> 487 ;
488 [label="gini = 0.0\nsamples = 2\nvalue = [[2, 0]\n[2, 0]\n[2, 0]\n[2, 0]\n[2, 0]\n[2, 0]\n[2, 0]\n[2, 0]\n[2, 0]\n[2, 0]\n[0, 2]\n[2, 0]]"] ;
486 -> 488 ;
489 [label="X[2] <= -0.811\ngini = 0.073\nsamples = 25\nvalue = [[25, 0]\n[25, 0]\n[25, 0]\n[25, 0]\n[25, 0]\n[25, 0]\n[25, 0]\n[25, 0]\n[25, 0]\n[25, 0]\n[8, 17]\n[17, 8]]"] ;
483 -> 489 ;
490 [label="X[9] <= -0.819\ngini = 0.058\nsamples = 9\nvalue = [[9, 0]\n[9, 0]\n[9, 0]\n[9, 0]\n[9, 0]\n[9, 0]\n[9, 0]\n[9, 0]\n[9, 0]\n[9, 0]\n[7, 2]\n[2, 7]]"] ;
489 -> 490 ;
491 [label="X[0] <= -1.021\ngini = 0.074\nsamples = 3\nvalue = [[3, 0]\n[3, 0]\n[3, 0]\n[3, 0]\n[3, 0]\n[3, 0]\n[3, 0]\n[3, 0]\n[3, 0]\n[3, 0]\n[1, 2]\n[2, 1]]"] ;
490 -> 491 ;
492 [label="gini = 0.0\nsamples = 1\nvalue = [[1, 0]\n[1, 0]\n[1, 0]\n[1, 0]\n[1, 0]\n[1, 0]\n[1, 0]\n[1, 0]\n[1, 0]\n[1, 0]\n[1, 0]\n[0, 1]]"] ;
491 -> 492 ;
493 [label="gini = 0.0\nsamples = 2\nvalue = [[2, 0]\n[2, 0]\n[2, 0]\n[2, 0]\n[2, 0]\n[2, 0]\n[2, 0]\n[2, 0]\n[2, 0]\n[2, 0]\n[0, 2]\n[2, 0]]"] ;
491 -> 493 ;
494 [label="gini = 0.0\nsamples = 6\nvalue = [[6, 0]\n[6, 0]\n[6, 0]\n[6, 0]\n[6, 0]\n[6, 0]\n[6, 0]\n[6, 0]\n[6, 0]\n[6, 0]\n[6, 0]\n[0, 6]]"] ;
490 -> 494 ;
495 [label="X[6] <= -0.18\ngini = 0.02\nsamples = 16\nvalue = [[16, 0]\n[16, 0]\n[16, 0]\n[16, 0]\n[16, 0]\n[16, 0]\n[16, 0]\n[16, 0]\n[16, 0]\n[16, 0]\n[1, 15]\n[15, 1]]"] ;
489 -> 495 ;
496 [label="gini = 0.0\nsamples = 12\nvalue = [[12, 0]\n[12, 0]\n[12, 0]\n[12, 0]\n[12, 0]\n[12, 0]\n[12, 0]\n[12, 0]\n[12, 0]\n[12, 0]\n[0, 12]\n[12, 0]]"] ;
495 -> 496 ;
497 [label="X[6] <= -0.087\ngini = 0.062\nsamples = 4\nvalue = [[4, 0]\n[4, 0]\n[4, 0]\n[4, 0]\n[4, 0]\n[4, 0]\n[4, 0]\n[4, 0]\n[4, 0]\n[4, 0]\n[1, 3]\n[3, 1]]"] ;
495 -> 497 ;
498 [label="gini = 0.0\nsamples = 1\nvalue = [[1, 0]\n[1, 0]\n[1, 0]\n[1, 0]\n[1, 0]\n[1, 0]\n[1, 0]\n[1, 0]\n[1, 0]\n[1, 0]\n[1, 0]\n[0, 1]]"] ;
497 -> 498 ;
499 [label="gini = 0.0\nsamples = 3\nvalue = [[3, 0]\n[3, 0]\n[3, 0]\n[3, 0]\n[3, 0]\n[3, 0]\n[3, 0]\n[3, 0]\n[3, 0]\n[3, 0]\n[0, 3]\n[3, 0]]"] ;
497 -> 499 ;
500 [label="X[6] <= -0.17\ngini = 0.026\nsamples = 23\nvalue = [[23, 0]\n[23, 0]\n[23, 0]\n[23, 0]\n[23, 0]\n[23, 0]\n[23, 0]\n[23, 0]\n[23, 0]\n[23, 0]\n[2, 21]\n[21, 2]]"] ;
482 -> 500 ;
501 [label="gini = 0.0\nsamples = 20\nvalue = [[20, 0]\n[20, 0]\n[20, 0]\n[20, 0]\n[20, 0]\n[20, 0]\n[20, 0]\n[20, 0]\n[20, 0]\n[20, 0]\n[0, 20]\n[20, 0]]"] ;
500 -> 501 ;
502 [label="X[8] <= -1.395\ngini = 0.074\nsamples = 3\nvalue = [[3, 0]\n[3, 0]\n[3, 0]\n[3, 0]\n[3, 0]\n[3, 0]\n[3, 0]\n[3, 0]\n[3, 0]\n[3, 0]\n[2, 1]\n[1, 2]]"] ;
500 -> 502 ;
503 [label="gini = 0.0\nsamples = 1\nvalue = [[1, 0]\n[1, 0]\n[1, 0]\n[1, 0]\n[1, 0]\n[1, 0]\n[1, 0]\n[1, 0]\n[1, 0]\n[1, 0]\n[0, 1]\n[1, 0]]"] ;
502 -> 503 ;
504 [label="gini = 0.0\nsamples = 2\nvalue = [[2, 0]\n[2, 0]\n[2, 0]\n[2, 0]\n[2, 0]\n[2, 0]\n[2, 0]\n[2, 0]\n[2, 0]\n[2, 0]\n[2, 0]\n[0, 2]]"] ;
502 -> 504 ;
505 [label="X[4] <= -1.424\ngini = 0.026\nsamples = 166\nvalue = [[166, 0]\n[166, 0]\n[166, 0]\n[166, 0]\n[166, 0]\n[166, 0]\n[166, 0]\n[166, 0]\n[166, 0]\n[165, 1]\n[14, 152]\n[153, 13]]"] ;
481 -> 505 ;
506 [label="X[7] <= -0.184\ngini = 0.057\nsamples = 46\nvalue = [[46, 0]\n[46, 0]\n[46, 0]\n[46, 0]\n[46, 0]\n[46, 0]\n[46, 0]\n[46, 0]\n[46, 0]\n[46, 0]\n[10, 36]\n[36, 10]]"] ;
505 -> 506 ;
507 [label="X[6] <= -0.563\ngini = 0.082\nsamples = 18\nvalue = [[18, 0]\n[18, 0]\n[18, 0]\n[18, 0]\n[18, 0]\n[18, 0]\n[18, 0]\n[18, 0]\n[18, 0]\n[18, 0]\n[8, 10]\n[10, 8]]"] ;
506 -> 507 ;
508 [label="gini = 0.0\nsamples = 4\nvalue = [[4, 0]\n[4, 0]\n[4, 0]\n[4, 0]\n[4, 0]\n[4, 0]\n[4, 0]\n[4, 0]\n[4, 0]\n[4, 0]\n[0, 4]\n[4, 0]]"] ;
507 -> 508 ;
509 [label="X[6] <= -0.167\ngini = 0.082\nsamples = 14\nvalue = [[14, 0]\n[14, 0]\n[14, 0]\n[14, 0]\n[14, 0]\n[14, 0]\n[14, 0]\n[14, 0]\n[14, 0]\n[14, 0]\n[8, 6]\n[6, 8]]"] ;
507 -> 509 ;
510 [label="X[5] <= -0.496\ngini = 0.066\nsamples = 11\nvalue = [[11, 0]\n[11, 0]\n[11, 0]\n[11, 0]\n[11, 0]\n[11, 0]\n[11, 0]\n[11, 0]\n[11, 0]\n[11, 0]\n[8, 3]\n[3, 8]]"] ;
509 -> 510 ;
511 [label="X[9] <= -1.167\ngini = 0.074\nsamples = 3\nvalue = [[3, 0]\n[3, 0]\n[3, 0]\n[3, 0]\n[3, 0]\n[3, 0]\n[3, 0]\n[3, 0]\n[3, 0]\n[3, 0]\n[1, 2]\n[2, 1]]"] ;
510 -> 511 ;
512 [label="gini = 0.0\nsamples = 1\nvalue = [[1, 0]\n[1, 0]\n[1, 0]\n[1, 0]\n[1, 0]\n[1, 0]\n[1, 0]\n[1, 0]\n[1, 0]\n[1, 0]\n[1, 0]\n[0, 1]]"] ;
511 -> 512 ;
513 [label="gini = 0.0\nsamples = 2\nvalue = [[2, 0]\n[2, 0]\n[2, 0]\n[2, 0]\n[2, 0]\n[2, 0]\n[2, 0]\n[2, 0]\n[2, 0]\n[2, 0]\n[0, 2]\n[2, 0]]"] ;
511 -> 513 ;
514 [label="X[9] <= 0.488\ngini = 0.036\nsamples = 8\nvalue = [[8, 0]\n[8, 0]\n[8, 0]\n[8, 0]\n[8, 0]\n[8, 0]\n[8, 0]\n[8, 0]\n[8, 0]\n[8, 0]\n[7, 1]\n[1, 7]]"] ;
510 -> 514 ;
515 [label="gini = 0.0\nsamples = 7\nvalue = [[7, 0]\n[7, 0]\n[7, 0]\n[7, 0]\n[7, 0]\n[7, 0]\n[7, 0]\n[7, 0]\n[7, 0]\n[7, 0]\n[7, 0]\n[0, 7]]"] ;
514 -> 515 ;
516 [label="gini = 0.0\nsamples = 1\nvalue = [[1, 0]\n[1, 0]\n[1, 0]\n[1, 0]\n[1, 0]\n[1, 0]\n[1, 0]\n[1, 0]\n[1, 0]\n[1, 0]\n[0, 1]\n[1, 0]]"] ;
514 -> 516 ;
517 [label="gini = 0.0\nsamples = 3\nvalue = [[3, 0]\n[3, 0]\n[3, 0]\n[3, 0]\n[3, 0]\n[3, 0]\n[3, 0]\n[3, 0]\n[3, 0]\n[3, 0]\n[0, 3]\n[3, 0]]"] ;
509 -> 517 ;
518 [label="X[8] <= -1.504\ngini = 0.022\nsamples = 28\nvalue = [[28, 0]\n[28, 0]\n[28, 0]\n[28, 0]\n[28, 0]\n[28, 0]\n[28, 0]\n[28, 0]\n[28, 0]\n[28, 0]\n[2, 26]\n[26, 2]]"] ;
506 -> 518 ;
519 [label="gini = 0.0\nsamples = 1\nvalue = [[1, 0]\n[1, 0]\n[1, 0]\n[1, 0]\n[1, 0]\n[1, 0]\n[1, 0]\n[1, 0]\n[1, 0]\n[1, 0]\n[1, 0]\n[0, 1]]"] ;
518 -> 519 ;
520 [label="X[1] <= -1.797\ngini = 0.012\nsamples = 27\nvalue = [[27, 0]\n[27, 0]\n[27, 0]\n[27, 0]\n[27, 0]\n[27, 0]\n[27, 0]\n[27, 0]\n[27, 0]\n[27, 0]\n[1, 26]\n[26, 1]]"] ;
518 -> 520 ;
521 [label="gini = 0.0\nsamples = 26\nvalue = [[26, 0]\n[26, 0]\n[26, 0]\n[26, 0]\n[26, 0]\n[26, 0]\n[26, 0]\n[26, 0]\n[26, 0]\n[26, 0]\n[0, 26]\n[26, 0]]"] ;
520 -> 521 ;
522 [label="gini = 0.0\nsamples = 1\nvalue = [[1, 0]\n[1, 0]\n[1, 0]\n[1, 0]\n[1, 0]\n[1, 0]\n[1, 0]\n[1, 0]\n[1, 0]\n[1, 0]\n[1, 0]\n[0, 1]]"] ;
520 -> 522 ;
523 [label="X[1] <= -0.839\ngini = 0.011\nsamples = 120\nvalue = [[120, 0]\n[120, 0]\n[120, 0]\n[120, 0]\n[120, 0]\n[120, 0]\n[120, 0]\n[120, 0]\n[120, 0]\n[119, 1]\n[4, 116]\n[117, 3]]"] ;
505 -> 523 ;
524 [label="X[6] <= -0.617\ngini = 0.008\nsamples = 119\nvalue = [[119, 0]\n[119, 0]\n[119, 0]\n[119, 0]\n[119, 0]\n[119, 0]\n[119, 0]\n[119, 0]\n[119, 0]\n[119, 0]\n[3, 116]\n[116, 3]]"] ;
523 -> 524 ;
525 [label="X[6] <= -0.621\ngini = 0.026\nsamples = 23\nvalue = [[23, 0]\n[23, 0]\n[23, 0]\n[23, 0]\n[23, 0]\n[23, 0]\n[23, 0]\n[23, 0]\n[23, 0]\n[23, 0]\n[2, 21]\n[21, 2]]"] ;
524 -> 525 ;
526 [label="X[5] <= -0.416\ngini = 0.014\nsamples = 22\nvalue = [[22, 0]\n[22, 0]\n[22, 0]\n[22, 0]\n[22, 0]\n[22, 0]\n[22, 0]\n[22, 0]\n[22, 0]\n[22, 0]\n[1, 21]\n[21, 1]]"] ;
525 -> 526 ;
527 [label="gini = 0.0\nsamples = 16\nvalue = [[16, 0]\n[16, 0]\n[16, 0]\n[16, 0]\n[16, 0]\n[16, 0]\n[16, 0]\n[16, 0]\n[16, 0]\n[16, 0]\n[0, 16]\n[16, 0]]"] ;
526 -> 527 ;
528 [label="X[5] <= -0.336\ngini = 0.046\nsamples = 6\nvalue = [[6, 0]\n[6, 0]\n[6, 0]\n[6, 0]\n[6, 0]\n[6, 0]\n[6, 0]\n[6, 0]\n[6, 0]\n[6, 0]\n[1, 5]\n[5, 1]]"] ;
526 -> 528 ;
529 [label="gini = 0.0\nsamples = 1\nvalue = [[1, 0]\n[1, 0]\n[1, 0]\n[1, 0]\n[1, 0]\n[1, 0]\n[1, 0]\n[1, 0]\n[1, 0]\n[1, 0]\n[1, 0]\n[0, 1]]"] ;
528 -> 529 ;
530 [label="gini = 0.0\nsamples = 5\nvalue = [[5, 0]\n[5, 0]\n[5, 0]\n[5, 0]\n[5, 0]\n[5, 0]\n[5, 0]\n[5, 0]\n[5, 0]\n[5, 0]\n[0, 5]\n[5, 0]]"] ;
528 -> 530 ;
531 [label="gini = 0.0\nsamples = 1\nvalue = [[1, 0]\n[1, 0]\n[1, 0]\n[1, 0]\n[1, 0]\n[1, 0]\n[1, 0]\n[1, 0]\n[1, 0]\n[1, 0]\n[1, 0]\n[0, 1]]"] ;
525 -> 531 ;
532 [label="X[0] <= -1.001\ngini = 0.003\nsamples = 96\nvalue = [[96, 0]\n[96, 0]\n[96, 0]\n[96, 0]\n[96, 0]\n[96, 0]\n[96, 0]\n[96, 0]\n[96, 0]\n[96, 0]\n[1, 95]\n[95, 1]]"] ;
524 -> 532 ;
533 [label="X[6] <= -0.067\ngini = 0.022\nsamples = 14\nvalue = [[14, 0]\n[14, 0]\n[14, 0]\n[14, 0]\n[14, 0]\n[14, 0]\n[14, 0]\n[14, 0]\n[14, 0]\n[14, 0]\n[1, 13]\n[13, 1]]"] ;
532 -> 533 ;
534 [label="gini = 0.0\nsamples = 11\nvalue = [[11, 0]\n[11, 0]\n[11, 0]\n[11, 0]\n[11, 0]\n[11, 0]\n[11, 0]\n[11, 0]\n[11, 0]\n[11, 0]\n[0, 11]\n[11, 0]]"] ;
533 -> 534 ;
535 [label="X[5] <= -0.336\ngini = 0.074\nsamples = 3\nvalue = [[3, 0]\n[3, 0]\n[3, 0]\n[3, 0]\n[3, 0]\n[3, 0]\n[3, 0]\n[3, 0]\n[3, 0]\n[3, 0]\n[1, 2]\n[2, 1]]"] ;
533 -> 535 ;
536 [label="gini = 0.0\nsamples = 1\nvalue = [[1, 0]\n[1, 0]\n[1, 0]\n[1, 0]\n[1, 0]\n[1, 0]\n[1, 0]\n[1, 0]\n[1, 0]\n[1, 0]\n[1, 0]\n[0, 1]]"] ;
535 -> 536 ;
537 [label="gini = 0.0\nsamples = 2\nvalue = [[2, 0]\n[2, 0]\n[2, 0]\n[2, 0]\n[2, 0]\n[2, 0]\n[2, 0]\n[2, 0]\n[2, 0]\n[2, 0]\n[0, 2]\n[2, 0]]"] ;
535 -> 537 ;
538 [label="gini = 0.0\nsamples = 82\nvalue = [[82, 0]\n[82, 0]\n[82, 0]\n[82, 0]\n[82, 0]\n[82, 0]\n[82, 0]\n[82, 0]\n[82, 0]\n[82, 0]\n[0, 82]\n[82, 0]]"] ;
532 -> 538 ;
539 [label="gini = 0.0\nsamples = 1\nvalue = [[1, 0]\n[1, 0]\n[1, 0]\n[1, 0]\n[1, 0]\n[1, 0]\n[1, 0]\n[1, 0]\n[1, 0]\n[0, 1]\n[1, 0]\n[1, 0]]"] ;
523 -> 539 ;
540 [label="X[7] <= -1.61\ngini = 0.016\nsamples = 1965\nvalue = [[1965, 0]\n[1965, 0]\n[1965, 0]\n[1965, 0]\n[1965, 0]\n[1965, 0]\n[1965, 0]\n[1965, 0]\n[1964, 1]\n[1965, 0]\n[99, 1866]\n[1867, 98]]"] ;
318 -> 540 ;
541 [label="gini = 0.0\nsamples = 3\nvalue = [[3, 0]\n[3, 0]\n[3, 0]\n[3, 0]\n[3, 0]\n[3, 0]\n[3, 0]\n[3, 0]\n[3, 0]\n[3, 0]\n[3, 0]\n[0, 3]]"] ;
540 -> 541 ;
542 [label="X[7] <= -0.62\ngini = 0.016\nsamples = 1962\nvalue = [[1962, 0]\n[1962, 0]\n[1962, 0]\n[1962, 0]\n[1962, 0]\n[1962, 0]\n[1962, 0]\n[1962, 0]\n[1961, 1]\n[1962, 0]\n[96, 1866]\n[1867, 95]]"] ;
540 -> 542 ;
543 [label="X[5] <= -0.896\ngini = 0.026\nsamples = 909\nvalue = [[909, 0]\n[909, 0]\n[909, 0]\n[909, 0]\n[909, 0]\n[909, 0]\n[909, 0]\n[909, 0]\n[909, 0]\n[909, 0]\n[79, 830]\n[830, 79]]"] ;
542 -> 543 ;
544 [label="X[6] <= -0.725\ngini = 0.017\nsamples = 850\nvalue = [[850, 0]\n[850, 0]\n[850, 0]\n[850, 0]\n[850, 0]\n[850, 0]\n[850, 0]\n[850, 0]\n[850, 0]\n[850, 0]\n[47, 803]\n[803, 47]]"] ;
543 -> 544 ;
545 [label="X[4] <= -0.606\ngini = 0.009\nsamples = 712\nvalue = [[712, 0]\n[712, 0]\n[712, 0]\n[712, 0]\n[712, 0]\n[712, 0]\n[712, 0]\n[712, 0]\n[712, 0]\n[712, 0]\n[20, 692]\n[692, 20]]"] ;
544 -> 545 ;
546 [label="X[5] <= -0.976\ngini = 0.009\nsamples = 711\nvalue = [[711, 0]\n[711, 0]\n[711, 0]\n[711, 0]\n[711, 0]\n[711, 0]\n[711, 0]\n[711, 0]\n[711, 0]\n[711, 0]\n[19, 692]\n[692, 19]]"] ;
545 -> 546 ;
547 [label="X[5] <= -1.936\ngini = 0.007\nsamples = 687\nvalue = [[687, 0]\n[687, 0]\n[687, 0]\n[687, 0]\n[687, 0]\n[687, 0]\n[687, 0]\n[687, 0]\n[687, 0]\n[687, 0]\n[15, 672]\n[672, 15]]"] ;
546 -> 547 ;
548 [label="X[7] <= -0.927\ngini = 0.083\nsamples = 2\nvalue = [[2, 0]\n[2, 0]\n[2, 0]\n[2, 0]\n[2, 0]\n[2, 0]\n[2, 0]\n[2, 0]\n[2, 0]\n[2, 0]\n[1, 1]\n[1, 1]]"] ;
547 -> 548 ;
549 [label="gini = 0.0\nsamples = 1\nvalue = [[1, 0]\n[1, 0]\n[1, 0]\n[1, 0]\n[1, 0]\n[1, 0]\n[1, 0]\n[1, 0]\n[1, 0]\n[1, 0]\n[0, 1]\n[1, 0]]"] ;
548 -> 549 ;
550 [label="gini = 0.0\nsamples = 1\nvalue = [[1, 0]\n[1, 0]\n[1, 0]\n[1, 0]\n[1, 0]\n[1, 0]\n[1, 0]\n[1, 0]\n[1, 0]\n[1, 0]\n[1, 0]\n[0, 1]]"] ;
548 -> 550 ;
551 [label="X[8] <= -1.455\ngini = 0.007\nsamples = 685\nvalue = [[685, 0]\n[685, 0]\n[685, 0]\n[685, 0]\n[685, 0]\n[685, 0]\n[685, 0]\n[685, 0]\n[685, 0]\n[685, 0]\n[14, 671]\n[671, 14]]"] ;
547 -> 551 ;
552 [label="X[4] <= -1.313\ngini = 0.028\nsamples = 64\nvalue = [[64, 0]\n[64, 0]\n[64, 0]\n[64, 0]\n[64, 0]\n[64, 0]\n[64, 0]\n[64, 0]\n[64, 0]\n[64, 0]\n[6, 58]\n[58, 6]]"] ;
551 -> 552 ;
553 [label="X[0] <= -0.981\ngini = 0.062\nsamples = 24\nvalue = [[24, 0]\n[24, 0]\n[24, 0]\n[24, 0]\n[24, 0]\n[24, 0]\n[24, 0]\n[24, 0]\n[24, 0]\n[24, 0]\n[6, 18]\n[18, 6]]"] ;
552 -> 553 ;
554 [label="X[4] <= -1.319\ngini = 0.05\nsamples = 22\nvalue = [[22, 0]\n[22, 0]\n[22, 0]\n[22, 0]\n[22, 0]\n[22, 0]\n[22, 0]\n[22, 0]\n[22, 0]\n[22, 0]\n[4, 18]\n[18, 4]]"] ;
553 -> 554 ;
555 [label="X[7] <= -0.856\ngini = 0.02\nsamples = 16\nvalue = [[16, 0]\n[16, 0]\n[16, 0]\n[16, 0]\n[16, 0]\n[16, 0]\n[16, 0]\n[16, 0]\n[16, 0]\n[16, 0]\n[1, 15]\n[15, 1]]"] ;
554 -> 555 ;
556 [label="gini = 0.0\nsamples = 12\nvalue = [[12, 0]\n[12, 0]\n[12, 0]\n[12, 0]\n[12, 0]\n[12, 0]\n[12, 0]\n[12, 0]\n[12, 0]\n[12, 0]\n[0, 12]\n[12, 0]]"] ;
555 -> 556 ;
557 [label="X[4] <= -1.331\ngini = 0.062\nsamples = 4\nvalue = [[4, 0]\n[4, 0]\n[4, 0]\n[4, 0]\n[4, 0]\n[4, 0]\n[4, 0]\n[4, 0]\n[4, 0]\n[4, 0]\n[1, 3]\n[3, 1]]"] ;
555 -> 557 ;
558 [label="gini = 0.0\nsamples = 1\nvalue = [[1, 0]\n[1, 0]\n[1, 0]\n[1, 0]\n[1, 0]\n[1, 0]\n[1, 0]\n[1, 0]\n[1, 0]\n[1, 0]\n[1, 0]\n[0, 1]]"] ;
557 -> 558 ;
559 [label="gini = 0.0\nsamples = 3\nvalue = [[3, 0]\n[3, 0]\n[3, 0]\n[3, 0]\n[3, 0]\n[3, 0]\n[3, 0]\n[3, 0]\n[3, 0]\n[3, 0]\n[0, 3]\n[3, 0]]"] ;
557 -> 559 ;
560 [label="X[4] <= -1.315\ngini = 0.083\nsamples = 6\nvalue = [[6, 0]\n[6, 0]\n[6, 0]\n[6, 0]\n[6, 0]\n[6, 0]\n[6, 0]\n[6, 0]\n[6, 0]\n[6, 0]\n[3, 3]\n[3, 3]]"] ;
554 -> 560 ;
561 [label="gini = 0.0\nsamples = 2\nvalue = [[2, 0]\n[2, 0]\n[2, 0]\n[2, 0]\n[2, 0]\n[2, 0]\n[2, 0]\n[2, 0]\n[2, 0]\n[2, 0]\n[2, 0]\n[0, 2]]"] ;
560 -> 561 ;
562 [label="X[7] <= -1.044\ngini = 0.062\nsamples = 4\nvalue = [[4, 0]\n[4, 0]\n[4, 0]\n[4, 0]\n[4, 0]\n[4, 0]\n[4, 0]\n[4, 0]\n[4, 0]\n[4, 0]\n[1, 3]\n[3, 1]]"] ;
560 -> 562 ;
563 [label="gini = 0.0\nsamples = 1\nvalue = [[1, 0]\n[1, 0]\n[1, 0]\n[1, 0]\n[1, 0]\n[1, 0]\n[1, 0]\n[1, 0]\n[1, 0]\n[1, 0]\n[1, 0]\n[0, 1]]"] ;
562 -> 563 ;
564 [label="gini = 0.0\nsamples = 3\nvalue = [[3, 0]\n[3, 0]\n[3, 0]\n[3, 0]\n[3, 0]\n[3, 0]\n[3, 0]\n[3, 0]\n[3, 0]\n[3, 0]\n[0, 3]\n[3, 0]]"] ;
562 -> 564 ;
565 [label="gini = 0.0\nsamples = 2\nvalue = [[2, 0]\n[2, 0]\n[2, 0]\n[2, 0]\n[2, 0]\n[2, 0]\n[2, 0]\n[2, 0]\n[2, 0]\n[2, 0]\n[2, 0]\n[0, 2]]"] ;
553 -> 565 ;
566 [label="gini = 0.0\nsamples = 40\nvalue = [[40, 0]\n[40, 0]\n[40, 0]\n[40, 0]\n[40, 0]\n[40, 0]\n[40, 0]\n[40, 0]\n[40, 0]\n[40, 0]\n[0, 40]\n[40, 0]]"] ;
552 -> 566 ;
